digraph Tree {
node [shape=box] ;
0 [label="X[0] <= 2.5\ngini = 0.483\nsamples = 13797\nvalue = [8152, 5645]"] ;
1 [label="X[2] <= 85.5\ngini = 0.268\nsamples = 4424\nvalue = [3718, 706]"] ;
0 -> 1 [labeldistance=2.5, labelangle=45, headlabel="True"] ;
2 [label="X[4] <= 1929.0\ngini = 0.139\nsamples = 2498\nvalue = [2310, 188]"] ;
1 -> 2 ;
3 [label="X[3] <= 101.5\ngini = 0.2\nsamples = 1434\nvalue = [1272, 162]"] ;
2 -> 3 ;
4 [label="X[1] <= 1.5\ngini = 0.191\nsamples = 1416\nvalue = [1265, 151]"] ;
3 -> 4 ;
5 [label="X[0] <= 1.5\ngini = 0.174\nsamples = 1349\nvalue = [1219, 130]"] ;
4 -> 5 ;
6 [label="X[3] <= 63.0\ngini = 0.046\nsamples = 256\nvalue = [250, 6]"] ;
5 -> 6 ;
7 [label="X[5] <= -18.877\ngini = 0.039\nsamples = 251\nvalue = [246, 5]"] ;
6 -> 7 ;
8 [label="X[5] <= -37.814\ngini = 0.013\nsamples = 148\nvalue = [147, 1]"] ;
7 -> 8 ;
9 [label="gini = 0.0\nsamples = 90\nvalue = [90, 0]"] ;
8 -> 9 ;
10 [label="X[5] <= -37.813\ngini = 0.034\nsamples = 58\nvalue = [57, 1]"] ;
8 -> 10 ;
11 [label="gini = 0.0\nsamples = 1\nvalue = [0, 1]"] ;
10 -> 11 ;
12 [label="gini = 0.0\nsamples = 57\nvalue = [57, 0]"] ;
10 -> 12 ;
13 [label="X[1] <= 0.5\ngini = 0.075\nsamples = 103\nvalue = [99, 4]"] ;
7 -> 13 ;
14 [label="gini = 0.076\nsamples = 101\nvalue = [97, 4]"] ;
13 -> 14 ;
15 [label="gini = 0.0\nsamples = 2\nvalue = [2, 0]"] ;
13 -> 15 ;
16 [label="X[5] <= -37.841\ngini = 0.32\nsamples = 5\nvalue = [4, 1]"] ;
6 -> 16 ;
17 [label="gini = 0.0\nsamples = 1\nvalue = [0, 1]"] ;
16 -> 17 ;
18 [label="gini = 0.0\nsamples = 4\nvalue = [4, 0]"] ;
16 -> 18 ;
19 [label="X[2] <= 79.5\ngini = 0.201\nsamples = 1093\nvalue = [969, 124]"] ;
5 -> 19 ;
20 [label="X[4] <= 1924.0\ngini = 0.198\nsamples = 1088\nvalue = [967, 121]"] ;
19 -> 20 ;
21 [label="X[4] <= 1877.5\ngini = 0.196\nsamples = 1087\nvalue = [967, 120]"] ;
20 -> 21 ;
22 [label="X[1] <= 0.5\ngini = 0.192\nsamples = 1066\nvalue = [951, 115]"] ;
21 -> 22 ;
23 [label="X[5] <= -37.839\ngini = 0.207\nsamples = 751\nvalue = [663, 88]"] ;
22 -> 23 ;
24 [label="X[5] <= -37.863\ngini = 0.415\nsamples = 34\nvalue = [24, 10]"] ;
23 -> 24 ;
25 [label="X[5] <= -37.869\ngini = 0.308\nsamples = 21\nvalue = [17, 4]"] ;
24 -> 25 ;
26 [label="gini = 0.391\nsamples = 15\nvalue = [11, 4]"] ;
25 -> 26 ;
27 [label="gini = 0.0\nsamples = 6\nvalue = [6, 0]"] ;
25 -> 27 ;
28 [label="X[5] <= -37.86\ngini = 0.497\nsamples = 13\nvalue = [7, 6]"] ;
24 -> 28 ;
29 [label="gini = 0.0\nsamples = 3\nvalue = [0, 3]"] ;
28 -> 29 ;
30 [label="gini = 0.42\nsamples = 10\nvalue = [7, 3]"] ;
28 -> 30 ;
31 [label="X[5] <= -37.803\ngini = 0.194\nsamples = 717\nvalue = [639, 78]"] ;
23 -> 31 ;
32 [label="gini = 0.0\nsamples = 16\nvalue = [16, 0]"] ;
31 -> 32 ;
33 [label="X[5] <= -37.797\ngini = 0.198\nsamples = 701\nvalue = [623, 78]"] ;
31 -> 33 ;
34 [label="gini = 0.0\nsamples = 1\nvalue = [0, 1]"] ;
33 -> 34 ;
35 [label="gini = 0.196\nsamples = 700\nvalue = [623, 77]"] ;
33 -> 35 ;
36 [label="X[5] <= -37.89\ngini = 0.157\nsamples = 315\nvalue = [288, 27]"] ;
22 -> 36 ;
37 [label="X[5] <= -37.891\ngini = 0.278\nsamples = 36\nvalue = [30, 6]"] ;
36 -> 37 ;
38 [label="X[6] <= 145.077\ngini = 0.245\nsamples = 35\nvalue = [30, 5]"] ;
37 -> 38 ;
39 [label="gini = 0.285\nsamples = 29\nvalue = [24, 5]"] ;
38 -> 39 ;
40 [label="gini = 0.0\nsamples = 6\nvalue = [6, 0]"] ;
38 -> 40 ;
41 [label="gini = 0.0\nsamples = 1\nvalue = [0, 1]"] ;
37 -> 41 ;
42 [label="X[5] <= -37.842\ngini = 0.139\nsamples = 279\nvalue = [258, 21]"] ;
36 -> 42 ;
43 [label="X[6] <= 145.098\ngini = 0.047\nsamples = 83\nvalue = [81, 2]"] ;
42 -> 43 ;
44 [label="gini = 0.025\nsamples = 80\nvalue = [79, 1]"] ;
43 -> 44 ;
45 [label="gini = 0.444\nsamples = 3\nvalue = [2, 1]"] ;
43 -> 45 ;
46 [label="X[5] <= -37.842\ngini = 0.175\nsamples = 196\nvalue = [177, 19]"] ;
42 -> 46 ;
47 [label="gini = 0.0\nsamples = 1\nvalue = [0, 1]"] ;
46 -> 47 ;
48 [label="gini = 0.168\nsamples = 195\nvalue = [177, 18]"] ;
46 -> 48 ;
49 [label="X[4] <= 1895.0\ngini = 0.363\nsamples = 21\nvalue = [16, 5]"] ;
21 -> 49 ;
50 [label="X[5] <= -37.819\ngini = 0.494\nsamples = 9\nvalue = [5, 4]"] ;
49 -> 50 ;
51 [label="gini = 0.0\nsamples = 3\nvalue = [3, 0]"] ;
50 -> 51 ;
52 [label="X[5] <= -37.795\ngini = 0.444\nsamples = 6\nvalue = [2, 4]"] ;
50 -> 52 ;
53 [label="gini = 0.0\nsamples = 4\nvalue = [0, 4]"] ;
52 -> 53 ;
54 [label="gini = 0.0\nsamples = 2\nvalue = [2, 0]"] ;
52 -> 54 ;
55 [label="X[3] <= 27.5\ngini = 0.153\nsamples = 12\nvalue = [11, 1]"] ;
49 -> 55 ;
56 [label="X[2] <= 31.5\ngini = 0.5\nsamples = 2\nvalue = [1, 1]"] ;
55 -> 56 ;
57 [label="gini = 0.0\nsamples = 1\nvalue = [1, 0]"] ;
56 -> 57 ;
58 [label="gini = 0.0\nsamples = 1\nvalue = [0, 1]"] ;
56 -> 58 ;
59 [label="gini = 0.0\nsamples = 10\nvalue = [10, 0]"] ;
55 -> 59 ;
60 [label="gini = 0.0\nsamples = 1\nvalue = [0, 1]"] ;
20 -> 60 ;
61 [label="X[2] <= 81.0\ngini = 0.48\nsamples = 5\nvalue = [2, 3]"] ;
19 -> 61 ;
62 [label="gini = 0.0\nsamples = 2\nvalue = [0, 2]"] ;
61 -> 62 ;
63 [label="X[6] <= 144.946\ngini = 0.444\nsamples = 3\nvalue = [2, 1]"] ;
61 -> 63 ;
64 [label="gini = 0.0\nsamples = 1\nvalue = [0, 1]"] ;
63 -> 64 ;
65 [label="gini = 0.0\nsamples = 2\nvalue = [2, 0]"] ;
63 -> 65 ;
66 [label="X[5] <= -37.802\ngini = 0.43\nsamples = 67\nvalue = [46, 21]"] ;
4 -> 66 ;
67 [label="X[5] <= -37.865\ngini = 0.489\nsamples = 47\nvalue = [27, 20]"] ;
66 -> 67 ;
68 [label="gini = 0.0\nsamples = 8\nvalue = [8, 0]"] ;
67 -> 68 ;
69 [label="X[6] <= 144.963\ngini = 0.5\nsamples = 39\nvalue = [19, 20]"] ;
67 -> 69 ;
70 [label="gini = 0.0\nsamples = 6\nvalue = [0, 6]"] ;
69 -> 70 ;
71 [label="X[5] <= -37.851\ngini = 0.489\nsamples = 33\nvalue = [19, 14]"] ;
69 -> 71 ;
72 [label="X[6] <= 145.014\ngini = 0.278\nsamples = 6\nvalue = [1, 5]"] ;
71 -> 72 ;
73 [label="gini = 0.0\nsamples = 1\nvalue = [1, 0]"] ;
72 -> 73 ;
74 [label="gini = 0.0\nsamples = 5\nvalue = [0, 5]"] ;
72 -> 74 ;
75 [label="X[5] <= -37.842\ngini = 0.444\nsamples = 27\nvalue = [18, 9]"] ;
71 -> 75 ;
76 [label="X[2] <= 76.0\ngini = 0.18\nsamples = 10\nvalue = [9, 1]"] ;
75 -> 76 ;
77 [label="gini = 0.0\nsamples = 9\nvalue = [9, 0]"] ;
76 -> 77 ;
78 [label="gini = 0.0\nsamples = 1\nvalue = [0, 1]"] ;
76 -> 78 ;
79 [label="X[5] <= -37.841\ngini = 0.498\nsamples = 17\nvalue = [9, 8]"] ;
75 -> 79 ;
80 [label="gini = 0.0\nsamples = 2\nvalue = [0, 2]"] ;
79 -> 80 ;
81 [label="X[2] <= 27.5\ngini = 0.48\nsamples = 15\nvalue = [9, 6]"] ;
79 -> 81 ;
82 [label="X[4] <= 947.5\ngini = 0.459\nsamples = 14\nvalue = [9, 5]"] ;
81 -> 82 ;
83 [label="gini = 0.426\nsamples = 13\nvalue = [9, 4]"] ;
82 -> 83 ;
84 [label="gini = 0.0\nsamples = 1\nvalue = [0, 1]"] ;
82 -> 84 ;
85 [label="gini = 0.0\nsamples = 1\nvalue = [0, 1]"] ;
81 -> 85 ;
86 [label="X[6] <= 144.981\ngini = 0.095\nsamples = 20\nvalue = [19, 1]"] ;
66 -> 86 ;
87 [label="gini = 0.0\nsamples = 18\nvalue = [18, 0]"] ;
86 -> 87 ;
88 [label="X[6] <= 144.99\ngini = 0.5\nsamples = 2\nvalue = [1, 1]"] ;
86 -> 88 ;
89 [label="gini = 0.0\nsamples = 1\nvalue = [0, 1]"] ;
88 -> 89 ;
90 [label="gini = 0.0\nsamples = 1\nvalue = [1, 0]"] ;
88 -> 90 ;
91 [label="X[5] <= -37.791\ngini = 0.475\nsamples = 18\nvalue = [7, 11]"] ;
3 -> 91 ;
92 [label="X[3] <= 109.5\ngini = 0.43\nsamples = 16\nvalue = [5, 11]"] ;
91 -> 92 ;
93 [label="gini = 0.0\nsamples = 6\nvalue = [0, 6]"] ;
92 -> 93 ;
94 [label="X[1] <= 1.5\ngini = 0.5\nsamples = 10\nvalue = [5, 5]"] ;
92 -> 94 ;
95 [label="X[6] <= 145.046\ngini = 0.32\nsamples = 5\nvalue = [1, 4]"] ;
94 -> 95 ;
96 [label="gini = 0.0\nsamples = 4\nvalue = [0, 4]"] ;
95 -> 96 ;
97 [label="gini = 0.0\nsamples = 1\nvalue = [1, 0]"] ;
95 -> 97 ;
98 [label="X[3] <= 150.5\ngini = 0.32\nsamples = 5\nvalue = [4, 1]"] ;
94 -> 98 ;
99 [label="gini = 0.0\nsamples = 4\nvalue = [4, 0]"] ;
98 -> 99 ;
100 [label="gini = 0.0\nsamples = 1\nvalue = [0, 1]"] ;
98 -> 100 ;
101 [label="gini = 0.0\nsamples = 2\nvalue = [2, 0]"] ;
91 -> 101 ;
102 [label="X[3] <= 121.0\ngini = 0.048\nsamples = 1064\nvalue = [1038, 26]"] ;
2 -> 102 ;
103 [label="X[1] <= 1.5\ngini = 0.036\nsamples = 1048\nvalue = [1029, 19]"] ;
102 -> 103 ;
104 [label="X[4] <= 1942.5\ngini = 0.013\nsamples = 922\nvalue = [916, 6]"] ;
103 -> 104 ;
105 [label="X[5] <= -37.898\ngini = 0.085\nsamples = 45\nvalue = [43, 2]"] ;
104 -> 105 ;
106 [label="gini = 0.0\nsamples = 1\nvalue = [0, 1]"] ;
105 -> 106 ;
107 [label="X[6] <= 145.055\ngini = 0.044\nsamples = 44\nvalue = [43, 1]"] ;
105 -> 107 ;
108 [label="gini = 0.0\nsamples = 43\nvalue = [43, 0]"] ;
107 -> 108 ;
109 [label="gini = 0.0\nsamples = 1\nvalue = [0, 1]"] ;
107 -> 109 ;
110 [label="X[3] <= 102.5\ngini = 0.009\nsamples = 877\nvalue = [873, 4]"] ;
104 -> 110 ;
111 [label="X[3] <= 0.5\ngini = 0.007\nsamples = 853\nvalue = [850, 3]"] ;
110 -> 111 ;
112 [label="X[5] <= -37.859\ngini = 0.025\nsamples = 236\nvalue = [233, 3]"] ;
111 -> 112 ;
113 [label="X[5] <= -37.859\ngini = 0.063\nsamples = 61\nvalue = [59, 2]"] ;
112 -> 113 ;
114 [label="X[4] <= 2002.5\ngini = 0.033\nsamples = 60\nvalue = [59, 1]"] ;
113 -> 114 ;
115 [label="gini = 0.0\nsamples = 54\nvalue = [54, 0]"] ;
114 -> 115 ;
116 [label="X[4] <= 2004.0\ngini = 0.278\nsamples = 6\nvalue = [5, 1]"] ;
114 -> 116 ;
117 [label="gini = 0.0\nsamples = 1\nvalue = [0, 1]"] ;
116 -> 117 ;
118 [label="gini = 0.0\nsamples = 5\nvalue = [5, 0]"] ;
116 -> 118 ;
119 [label="gini = 0.0\nsamples = 1\nvalue = [0, 1]"] ;
113 -> 119 ;
120 [label="X[6] <= 145.081\ngini = 0.011\nsamples = 175\nvalue = [174, 1]"] ;
112 -> 120 ;
121 [label="gini = 0.0\nsamples = 159\nvalue = [159, 0]"] ;
120 -> 121 ;
122 [label="X[6] <= 145.083\ngini = 0.117\nsamples = 16\nvalue = [15, 1]"] ;
120 -> 122 ;
123 [label="gini = 0.0\nsamples = 1\nvalue = [0, 1]"] ;
122 -> 123 ;
124 [label="gini = 0.0\nsamples = 15\nvalue = [15, 0]"] ;
122 -> 124 ;
125 [label="gini = 0.0\nsamples = 617\nvalue = [617, 0]"] ;
111 -> 125 ;
126 [label="X[3] <= 103.5\ngini = 0.08\nsamples = 24\nvalue = [23, 1]"] ;
110 -> 126 ;
127 [label="X[5] <= -37.819\ngini = 0.375\nsamples = 4\nvalue = [3, 1]"] ;
126 -> 127 ;
128 [label="gini = 0.0\nsamples = 1\nvalue = [0, 1]"] ;
127 -> 128 ;
129 [label="gini = 0.0\nsamples = 3\nvalue = [3, 0]"] ;
127 -> 129 ;
130 [label="gini = 0.0\nsamples = 20\nvalue = [20, 0]"] ;
126 -> 130 ;
131 [label="X[5] <= -37.837\ngini = 0.185\nsamples = 126\nvalue = [113, 13]"] ;
103 -> 131 ;
132 [label="X[5] <= -37.838\ngini = 0.329\nsamples = 53\nvalue = [42, 11]"] ;
131 -> 132 ;
133 [label="X[4] <= 2008.0\ngini = 0.269\nsamples = 50\nvalue = [42, 8]"] ;
132 -> 133 ;
134 [label="X[3] <= 103.5\ngini = 0.426\nsamples = 26\nvalue = [18, 8]"] ;
133 -> 134 ;
135 [label="X[3] <= 28.0\ngini = 0.34\nsamples = 23\nvalue = [18, 5]"] ;
134 -> 135 ;
136 [label="X[6] <= 145.046\ngini = 0.494\nsamples = 9\nvalue = [4, 5]"] ;
135 -> 136 ;
137 [label="X[5] <= -37.845\ngini = 0.408\nsamples = 7\nvalue = [2, 5]"] ;
136 -> 137 ;
138 [label="gini = 0.0\nsamples = 4\nvalue = [0, 4]"] ;
137 -> 138 ;
139 [label="X[6] <= 144.94\ngini = 0.444\nsamples = 3\nvalue = [2, 1]"] ;
137 -> 139 ;
140 [label="gini = 0.0\nsamples = 1\nvalue = [1, 0]"] ;
139 -> 140 ;
141 [label="gini = 0.5\nsamples = 2\nvalue = [1, 1]"] ;
139 -> 141 ;
142 [label="gini = 0.0\nsamples = 2\nvalue = [2, 0]"] ;
136 -> 142 ;
143 [label="gini = 0.0\nsamples = 14\nvalue = [14, 0]"] ;
135 -> 143 ;
144 [label="gini = 0.0\nsamples = 3\nvalue = [0, 3]"] ;
134 -> 144 ;
145 [label="gini = 0.0\nsamples = 24\nvalue = [24, 0]"] ;
133 -> 145 ;
146 [label="gini = 0.0\nsamples = 3\nvalue = [0, 3]"] ;
132 -> 146 ;
147 [label="X[4] <= 2007.5\ngini = 0.053\nsamples = 73\nvalue = [71, 2]"] ;
131 -> 147 ;
148 [label="gini = 0.0\nsamples = 32\nvalue = [32, 0]"] ;
147 -> 148 ;
149 [label="X[3] <= 94.5\ngini = 0.093\nsamples = 41\nvalue = [39, 2]"] ;
147 -> 149 ;
150 [label="X[4] <= 2008.5\ngini = 0.053\nsamples = 37\nvalue = [36, 1]"] ;
149 -> 150 ;
151 [label="X[6] <= 144.978\ngini = 0.375\nsamples = 4\nvalue = [3, 1]"] ;
150 -> 151 ;
152 [label="gini = 0.0\nsamples = 1\nvalue = [0, 1]"] ;
151 -> 152 ;
153 [label="gini = 0.0\nsamples = 3\nvalue = [3, 0]"] ;
151 -> 153 ;
154 [label="gini = 0.0\nsamples = 33\nvalue = [33, 0]"] ;
150 -> 154 ;
155 [label="X[5] <= -37.817\ngini = 0.375\nsamples = 4\nvalue = [3, 1]"] ;
149 -> 155 ;
156 [label="gini = 0.0\nsamples = 1\nvalue = [0, 1]"] ;
155 -> 156 ;
157 [label="gini = 0.0\nsamples = 3\nvalue = [3, 0]"] ;
155 -> 157 ;
158 [label="X[6] <= 144.956\ngini = 0.492\nsamples = 16\nvalue = [9, 7]"] ;
102 -> 158 ;
159 [label="gini = 0.0\nsamples = 6\nvalue = [6, 0]"] ;
158 -> 159 ;
160 [label="X[3] <= 137.5\ngini = 0.42\nsamples = 10\nvalue = [3, 7]"] ;
158 -> 160 ;
161 [label="gini = 0.0\nsamples = 6\nvalue = [0, 6]"] ;
160 -> 161 ;
162 [label="X[4] <= 2002.5\ngini = 0.375\nsamples = 4\nvalue = [3, 1]"] ;
160 -> 162 ;
163 [label="gini = 0.0\nsamples = 3\nvalue = [3, 0]"] ;
162 -> 163 ;
164 [label="gini = 0.0\nsamples = 1\nvalue = [0, 1]"] ;
162 -> 164 ;
165 [label="X[4] <= 1951.5\ngini = 0.393\nsamples = 1926\nvalue = [1408, 518]"] ;
1 -> 165 ;
166 [label="X[5] <= -37.754\ngini = 0.478\nsamples = 1175\nvalue = [710, 465]"] ;
165 -> 166 ;
167 [label="X[6] <= 144.91\ngini = 0.497\nsamples = 961\nvalue = [518, 443]"] ;
166 -> 167 ;
168 [label="X[2] <= 441.0\ngini = 0.263\nsamples = 154\nvalue = [130, 24]"] ;
167 -> 168 ;
169 [label="X[6] <= 144.888\ngini = 0.124\nsamples = 105\nvalue = [98, 7]"] ;
168 -> 169 ;
170 [label="gini = 0.0\nsamples = 53\nvalue = [53, 0]"] ;
169 -> 170 ;
171 [label="X[6] <= 144.888\ngini = 0.233\nsamples = 52\nvalue = [45, 7]"] ;
169 -> 171 ;
172 [label="gini = 0.0\nsamples = 1\nvalue = [0, 1]"] ;
171 -> 172 ;
173 [label="X[5] <= -37.861\ngini = 0.208\nsamples = 51\nvalue = [45, 6]"] ;
171 -> 173 ;
174 [label="gini = 0.0\nsamples = 1\nvalue = [0, 1]"] ;
173 -> 174 ;
175 [label="X[2] <= 183.5\ngini = 0.18\nsamples = 50\nvalue = [45, 5]"] ;
173 -> 175 ;
176 [label="gini = 0.0\nsamples = 23\nvalue = [23, 0]"] ;
175 -> 176 ;
177 [label="X[2] <= 250.5\ngini = 0.302\nsamples = 27\nvalue = [22, 5]"] ;
175 -> 177 ;
178 [label="X[4] <= 1905.0\ngini = 0.486\nsamples = 12\nvalue = [7, 5]"] ;
177 -> 178 ;
179 [label="X[6] <= 144.893\ngini = 0.469\nsamples = 8\nvalue = [3, 5]"] ;
178 -> 179 ;
180 [label="gini = 0.0\nsamples = 3\nvalue = [0, 3]"] ;
179 -> 180 ;
181 [label="gini = 0.48\nsamples = 5\nvalue = [3, 2]"] ;
179 -> 181 ;
182 [label="gini = 0.0\nsamples = 4\nvalue = [4, 0]"] ;
178 -> 182 ;
183 [label="gini = 0.0\nsamples = 15\nvalue = [15, 0]"] ;
177 -> 183 ;
184 [label="X[6] <= 144.86\ngini = 0.453\nsamples = 49\nvalue = [32, 17]"] ;
168 -> 184 ;
185 [label="X[2] <= 720.0\ngini = 0.198\nsamples = 18\nvalue = [16, 2]"] ;
184 -> 185 ;
186 [label="gini = 0.0\nsamples = 15\nvalue = [15, 0]"] ;
185 -> 186 ;
187 [label="X[6] <= 144.842\ngini = 0.444\nsamples = 3\nvalue = [1, 2]"] ;
185 -> 187 ;
188 [label="gini = 0.0\nsamples = 2\nvalue = [0, 2]"] ;
187 -> 188 ;
189 [label="gini = 0.0\nsamples = 1\nvalue = [1, 0]"] ;
187 -> 189 ;
190 [label="X[5] <= -37.835\ngini = 0.499\nsamples = 31\nvalue = [16, 15]"] ;
184 -> 190 ;
191 [label="gini = 0.0\nsamples = 6\nvalue = [0, 6]"] ;
190 -> 191 ;
192 [label="X[5] <= -37.764\ngini = 0.461\nsamples = 25\nvalue = [16, 9]"] ;
190 -> 192 ;
193 [label="X[6] <= 144.88\ngini = 0.423\nsamples = 23\nvalue = [16, 7]"] ;
192 -> 193 ;
194 [label="X[5] <= -37.796\ngini = 0.498\nsamples = 15\nvalue = [8, 7]"] ;
193 -> 194 ;
195 [label="X[5] <= -37.815\ngini = 0.397\nsamples = 11\nvalue = [8, 3]"] ;
194 -> 195 ;
196 [label="X[5] <= -37.82\ngini = 0.5\nsamples = 6\nvalue = [3, 3]"] ;
195 -> 196 ;
197 [label="gini = 0.0\nsamples = 3\nvalue = [3, 0]"] ;
196 -> 197 ;
198 [label="gini = 0.0\nsamples = 3\nvalue = [0, 3]"] ;
196 -> 198 ;
199 [label="gini = 0.0\nsamples = 5\nvalue = [5, 0]"] ;
195 -> 199 ;
200 [label="gini = 0.0\nsamples = 4\nvalue = [0, 4]"] ;
194 -> 200 ;
201 [label="gini = 0.0\nsamples = 8\nvalue = [8, 0]"] ;
193 -> 201 ;
202 [label="gini = 0.0\nsamples = 2\nvalue = [0, 2]"] ;
192 -> 202 ;
203 [label="X[2] <= 807.0\ngini = 0.499\nsamples = 807\nvalue = [388, 419]"] ;
167 -> 203 ;
204 [label="X[6] <= 145.057\ngini = 0.486\nsamples = 690\nvalue = [287, 403]"] ;
203 -> 204 ;
205 [label="X[3] <= 93.5\ngini = 0.464\nsamples = 577\nvalue = [211, 366]"] ;
204 -> 205 ;
206 [label="X[5] <= -37.856\ngini = 0.487\nsamples = 453\nvalue = [190, 263]"] ;
205 -> 206 ;
207 [label="X[2] <= 199.5\ngini = 0.483\nsamples = 103\nvalue = [61, 42]"] ;
206 -> 207 ;
208 [label="X[6] <= 144.982\ngini = 0.147\nsamples = 25\nvalue = [23, 2]"] ;
207 -> 208 ;
209 [label="gini = 0.0\nsamples = 1\nvalue = [0, 1]"] ;
208 -> 209 ;
210 [label="X[5] <= -37.857\ngini = 0.08\nsamples = 24\nvalue = [23, 1]"] ;
208 -> 210 ;
211 [label="gini = 0.0\nsamples = 21\nvalue = [21, 0]"] ;
210 -> 211 ;
212 [label="X[5] <= -37.857\ngini = 0.444\nsamples = 3\nvalue = [2, 1]"] ;
210 -> 212 ;
213 [label="gini = 0.0\nsamples = 1\nvalue = [0, 1]"] ;
212 -> 213 ;
214 [label="gini = 0.0\nsamples = 2\nvalue = [2, 0]"] ;
212 -> 214 ;
215 [label="X[4] <= 1937.0\ngini = 0.5\nsamples = 78\nvalue = [38, 40]"] ;
207 -> 215 ;
216 [label="X[5] <= -37.942\ngini = 0.495\nsamples = 73\nvalue = [33, 40]"] ;
215 -> 216 ;
217 [label="gini = 0.0\nsamples = 4\nvalue = [4, 0]"] ;
216 -> 217 ;
218 [label="X[0] <= 1.5\ngini = 0.487\nsamples = 69\nvalue = [29, 40]"] ;
216 -> 218 ;
219 [label="gini = 0.0\nsamples = 3\nvalue = [3, 0]"] ;
218 -> 219 ;
220 [label="gini = 0.478\nsamples = 66\nvalue = [26, 40]"] ;
218 -> 220 ;
221 [label="gini = 0.0\nsamples = 5\nvalue = [5, 0]"] ;
215 -> 221 ;
222 [label="X[5] <= -37.814\ngini = 0.465\nsamples = 350\nvalue = [129, 221]"] ;
206 -> 222 ;
223 [label="X[2] <= 601.5\ngini = 0.343\nsamples = 141\nvalue = [31, 110]"] ;
222 -> 223 ;
224 [label="X[2] <= 129.5\ngini = 0.294\nsamples = 134\nvalue = [24, 110]"] ;
223 -> 224 ;
225 [label="X[6] <= 144.968\ngini = 0.455\nsamples = 40\nvalue = [14, 26]"] ;
224 -> 225 ;
226 [label="gini = 0.111\nsamples = 17\nvalue = [1, 16]"] ;
225 -> 226 ;
227 [label="gini = 0.491\nsamples = 23\nvalue = [13, 10]"] ;
225 -> 227 ;
228 [label="X[2] <= 266.5\ngini = 0.19\nsamples = 94\nvalue = [10, 84]"] ;
224 -> 228 ;
229 [label="gini = 0.078\nsamples = 74\nvalue = [3, 71]"] ;
228 -> 229 ;
230 [label="gini = 0.455\nsamples = 20\nvalue = [7, 13]"] ;
228 -> 230 ;
231 [label="gini = 0.0\nsamples = 7\nvalue = [7, 0]"] ;
223 -> 231 ;
232 [label="X[2] <= 142.5\ngini = 0.498\nsamples = 209\nvalue = [98, 111]"] ;
222 -> 232 ;
233 [label="X[6] <= 144.986\ngini = 0.448\nsamples = 56\nvalue = [37, 19]"] ;
232 -> 233 ;
234 [label="X[6] <= 144.944\ngini = 0.492\nsamples = 39\nvalue = [22, 17]"] ;
233 -> 234 ;
235 [label="gini = 0.0\nsamples = 8\nvalue = [8, 0]"] ;
234 -> 235 ;
236 [label="gini = 0.495\nsamples = 31\nvalue = [14, 17]"] ;
234 -> 236 ;
237 [label="X[2] <= 139.5\ngini = 0.208\nsamples = 17\nvalue = [15, 2]"] ;
233 -> 237 ;
238 [label="gini = 0.124\nsamples = 15\nvalue = [14, 1]"] ;
237 -> 238 ;
239 [label="gini = 0.5\nsamples = 2\nvalue = [1, 1]"] ;
237 -> 239 ;
240 [label="X[6] <= 144.966\ngini = 0.479\nsamples = 153\nvalue = [61, 92]"] ;
232 -> 240 ;
241 [label="X[3] <= 29.0\ngini = 0.493\nsamples = 59\nvalue = [33, 26]"] ;
240 -> 241 ;
242 [label="gini = 0.491\nsamples = 44\nvalue = [19, 25]"] ;
241 -> 242 ;
243 [label="gini = 0.124\nsamples = 15\nvalue = [14, 1]"] ;
241 -> 243 ;
244 [label="X[6] <= 145.0\ngini = 0.418\nsamples = 94\nvalue = [28, 66]"] ;
240 -> 244 ;
245 [label="gini = 0.32\nsamples = 60\nvalue = [12, 48]"] ;
244 -> 245 ;
246 [label="gini = 0.498\nsamples = 34\nvalue = [16, 18]"] ;
244 -> 246 ;
247 [label="X[6] <= 145.052\ngini = 0.281\nsamples = 124\nvalue = [21, 103]"] ;
205 -> 247 ;
248 [label="X[5] <= -37.815\ngini = 0.263\nsamples = 122\nvalue = [19, 103]"] ;
247 -> 248 ;
249 [label="X[5] <= -37.922\ngini = 0.065\nsamples = 59\nvalue = [2, 57]"] ;
248 -> 249 ;
250 [label="X[4] <= 1945.0\ngini = 0.48\nsamples = 5\nvalue = [2, 3]"] ;
249 -> 250 ;
251 [label="gini = 0.0\nsamples = 2\nvalue = [2, 0]"] ;
250 -> 251 ;
252 [label="gini = 0.0\nsamples = 3\nvalue = [0, 3]"] ;
250 -> 252 ;
253 [label="gini = 0.0\nsamples = 54\nvalue = [0, 54]"] ;
249 -> 253 ;
254 [label="X[6] <= 144.993\ngini = 0.394\nsamples = 63\nvalue = [17, 46]"] ;
248 -> 254 ;
255 [label="X[5] <= -37.8\ngini = 0.469\nsamples = 40\nvalue = [15, 25]"] ;
254 -> 255 ;
256 [label="gini = 0.0\nsamples = 3\nvalue = [3, 0]"] ;
255 -> 256 ;
257 [label="X[6] <= 144.965\ngini = 0.438\nsamples = 37\nvalue = [12, 25]"] ;
255 -> 257 ;
258 [label="gini = 0.499\nsamples = 19\nvalue = [9, 10]"] ;
257 -> 258 ;
259 [label="gini = 0.278\nsamples = 18\nvalue = [3, 15]"] ;
257 -> 259 ;
260 [label="X[3] <= 144.5\ngini = 0.159\nsamples = 23\nvalue = [2, 21]"] ;
254 -> 260 ;
261 [label="X[4] <= 1947.5\ngini = 0.087\nsamples = 22\nvalue = [1, 21]"] ;
260 -> 261 ;
262 [label="gini = 0.0\nsamples = 21\nvalue = [0, 21]"] ;
261 -> 262 ;
263 [label="gini = 0.0\nsamples = 1\nvalue = [1, 0]"] ;
261 -> 263 ;
264 [label="gini = 0.0\nsamples = 1\nvalue = [1, 0]"] ;
260 -> 264 ;
265 [label="gini = 0.0\nsamples = 2\nvalue = [2, 0]"] ;
247 -> 265 ;
266 [label="X[2] <= 338.5\ngini = 0.44\nsamples = 113\nvalue = [76, 37]"] ;
204 -> 266 ;
267 [label="X[3] <= 119.5\ngini = 0.064\nsamples = 60\nvalue = [58, 2]"] ;
266 -> 267 ;
268 [label="X[6] <= 145.062\ngini = 0.034\nsamples = 57\nvalue = [56, 1]"] ;
267 -> 268 ;
269 [label="X[6] <= 145.061\ngini = 0.245\nsamples = 7\nvalue = [6, 1]"] ;
268 -> 269 ;
270 [label="gini = 0.0\nsamples = 6\nvalue = [6, 0]"] ;
269 -> 270 ;
271 [label="gini = 0.0\nsamples = 1\nvalue = [0, 1]"] ;
269 -> 271 ;
272 [label="gini = 0.0\nsamples = 50\nvalue = [50, 0]"] ;
268 -> 272 ;
273 [label="X[6] <= 145.102\ngini = 0.444\nsamples = 3\nvalue = [2, 1]"] ;
267 -> 273 ;
274 [label="gini = 0.0\nsamples = 1\nvalue = [0, 1]"] ;
273 -> 274 ;
275 [label="gini = 0.0\nsamples = 2\nvalue = [2, 0]"] ;
273 -> 275 ;
276 [label="X[6] <= 145.152\ngini = 0.449\nsamples = 53\nvalue = [18, 35]"] ;
266 -> 276 ;
277 [label="X[5] <= -37.894\ngini = 0.408\nsamples = 49\nvalue = [14, 35]"] ;
276 -> 277 ;
278 [label="X[5] <= -37.899\ngini = 0.498\nsamples = 17\nvalue = [8, 9]"] ;
277 -> 278 ;
279 [label="X[5] <= -37.993\ngini = 0.459\nsamples = 14\nvalue = [5, 9]"] ;
278 -> 279 ;
280 [label="gini = 0.0\nsamples = 3\nvalue = [0, 3]"] ;
279 -> 280 ;
281 [label="X[5] <= -37.905\ngini = 0.496\nsamples = 11\nvalue = [5, 6]"] ;
279 -> 281 ;
282 [label="gini = 0.469\nsamples = 8\nvalue = [5, 3]"] ;
281 -> 282 ;
283 [label="gini = 0.0\nsamples = 3\nvalue = [0, 3]"] ;
281 -> 283 ;
284 [label="gini = 0.0\nsamples = 3\nvalue = [3, 0]"] ;
278 -> 284 ;
285 [label="X[2] <= 584.5\ngini = 0.305\nsamples = 32\nvalue = [6, 26]"] ;
277 -> 285 ;
286 [label="X[6] <= 145.073\ngini = 0.486\nsamples = 12\nvalue = [5, 7]"] ;
285 -> 286 ;
287 [label="gini = 0.0\nsamples = 5\nvalue = [0, 5]"] ;
286 -> 287 ;
288 [label="X[2] <= 407.5\ngini = 0.408\nsamples = 7\nvalue = [5, 2]"] ;
286 -> 288 ;
289 [label="gini = 0.444\nsamples = 3\nvalue = [1, 2]"] ;
288 -> 289 ;
290 [label="gini = 0.0\nsamples = 4\nvalue = [4, 0]"] ;
288 -> 290 ;
291 [label="X[0] <= 1.5\ngini = 0.095\nsamples = 20\nvalue = [1, 19]"] ;
285 -> 291 ;
292 [label="gini = 0.0\nsamples = 1\nvalue = [1, 0]"] ;
291 -> 292 ;
293 [label="gini = 0.0\nsamples = 19\nvalue = [0, 19]"] ;
291 -> 293 ;
294 [label="gini = 0.0\nsamples = 4\nvalue = [4, 0]"] ;
276 -> 294 ;
295 [label="X[6] <= 145.082\ngini = 0.236\nsamples = 117\nvalue = [101, 16]"] ;
203 -> 295 ;
296 [label="X[3] <= 87.0\ngini = 0.161\nsamples = 102\nvalue = [93, 9]"] ;
295 -> 296 ;
297 [label="X[5] <= -37.903\ngini = 0.116\nsamples = 97\nvalue = [91, 6]"] ;
296 -> 297 ;
298 [label="X[2] <= 1019.5\ngini = 0.49\nsamples = 7\nvalue = [4, 3]"] ;
297 -> 298 ;
299 [label="X[2] <= 840.0\ngini = 0.375\nsamples = 4\nvalue = [1, 3]"] ;
298 -> 299 ;
300 [label="gini = 0.0\nsamples = 1\nvalue = [1, 0]"] ;
299 -> 300 ;
301 [label="gini = 0.0\nsamples = 3\nvalue = [0, 3]"] ;
299 -> 301 ;
302 [label="gini = 0.0\nsamples = 3\nvalue = [3, 0]"] ;
298 -> 302 ;
303 [label="X[5] <= -37.788\ngini = 0.064\nsamples = 90\nvalue = [87, 3]"] ;
297 -> 303 ;
304 [label="X[1] <= 1.5\ngini = 0.027\nsamples = 73\nvalue = [72, 1]"] ;
303 -> 304 ;
305 [label="gini = 0.0\nsamples = 61\nvalue = [61, 0]"] ;
304 -> 305 ;
306 [label="X[5] <= -37.839\ngini = 0.153\nsamples = 12\nvalue = [11, 1]"] ;
304 -> 306 ;
307 [label="gini = 0.0\nsamples = 9\nvalue = [9, 0]"] ;
306 -> 307 ;
308 [label="X[5] <= -37.827\ngini = 0.444\nsamples = 3\nvalue = [2, 1]"] ;
306 -> 308 ;
309 [label="gini = 0.0\nsamples = 1\nvalue = [0, 1]"] ;
308 -> 309 ;
310 [label="gini = 0.0\nsamples = 2\nvalue = [2, 0]"] ;
308 -> 310 ;
311 [label="X[5] <= -37.787\ngini = 0.208\nsamples = 17\nvalue = [15, 2]"] ;
303 -> 311 ;
312 [label="gini = 0.0\nsamples = 1\nvalue = [0, 1]"] ;
311 -> 312 ;
313 [label="X[6] <= 145.05\ngini = 0.117\nsamples = 16\nvalue = [15, 1]"] ;
311 -> 313 ;
314 [label="gini = 0.0\nsamples = 14\nvalue = [14, 0]"] ;
313 -> 314 ;
315 [label="X[2] <= 1905.0\ngini = 0.5\nsamples = 2\nvalue = [1, 1]"] ;
313 -> 315 ;
316 [label="gini = 0.0\nsamples = 1\nvalue = [0, 1]"] ;
315 -> 316 ;
317 [label="gini = 0.0\nsamples = 1\nvalue = [1, 0]"] ;
315 -> 317 ;
318 [label="X[2] <= 1611.0\ngini = 0.48\nsamples = 5\nvalue = [2, 3]"] ;
296 -> 318 ;
319 [label="gini = 0.0\nsamples = 2\nvalue = [0, 2]"] ;
318 -> 319 ;
320 [label="X[6] <= 145.011\ngini = 0.444\nsamples = 3\nvalue = [2, 1]"] ;
318 -> 320 ;
321 [label="gini = 0.0\nsamples = 2\nvalue = [2, 0]"] ;
320 -> 321 ;
322 [label="gini = 0.0\nsamples = 1\nvalue = [0, 1]"] ;
320 -> 322 ;
323 [label="X[5] <= -37.812\ngini = 0.498\nsamples = 15\nvalue = [8, 7]"] ;
295 -> 323 ;
324 [label="X[5] <= -37.829\ngini = 0.42\nsamples = 10\nvalue = [7, 3]"] ;
323 -> 324 ;
325 [label="X[5] <= -37.868\ngini = 0.5\nsamples = 6\nvalue = [3, 3]"] ;
324 -> 325 ;
326 [label="gini = 0.0\nsamples = 3\nvalue = [3, 0]"] ;
325 -> 326 ;
327 [label="gini = 0.0\nsamples = 3\nvalue = [0, 3]"] ;
325 -> 327 ;
328 [label="gini = 0.0\nsamples = 4\nvalue = [4, 0]"] ;
324 -> 328 ;
329 [label="X[6] <= 145.28\ngini = 0.32\nsamples = 5\nvalue = [1, 4]"] ;
323 -> 329 ;
330 [label="gini = 0.0\nsamples = 4\nvalue = [0, 4]"] ;
329 -> 330 ;
331 [label="gini = 0.0\nsamples = 1\nvalue = [1, 0]"] ;
329 -> 331 ;
332 [label="X[2] <= 702.5\ngini = 0.184\nsamples = 214\nvalue = [192, 22]"] ;
166 -> 332 ;
333 [label="X[5] <= -37.738\ngini = 0.085\nsamples = 179\nvalue = [171, 8]"] ;
332 -> 333 ;
334 [label="X[5] <= -37.738\ngini = 0.182\nsamples = 79\nvalue = [71, 8]"] ;
333 -> 334 ;
335 [label="X[2] <= 360.5\ngini = 0.163\nsamples = 78\nvalue = [71, 7]"] ;
334 -> 335 ;
336 [label="gini = 0.0\nsamples = 39\nvalue = [39, 0]"] ;
335 -> 336 ;
337 [label="X[6] <= 145.007\ngini = 0.295\nsamples = 39\nvalue = [32, 7]"] ;
335 -> 337 ;
338 [label="X[6] <= 144.989\ngini = 0.444\nsamples = 21\nvalue = [14, 7]"] ;
337 -> 338 ;
339 [label="X[6] <= 144.899\ngini = 0.291\nsamples = 17\nvalue = [14, 3]"] ;
338 -> 339 ;
340 [label="X[6] <= 144.883\ngini = 0.444\nsamples = 3\nvalue = [1, 2]"] ;
339 -> 340 ;
341 [label="gini = 0.0\nsamples = 1\nvalue = [1, 0]"] ;
340 -> 341 ;
342 [label="gini = 0.0\nsamples = 2\nvalue = [0, 2]"] ;
340 -> 342 ;
343 [label="X[4] <= 1935.0\ngini = 0.133\nsamples = 14\nvalue = [13, 1]"] ;
339 -> 343 ;
344 [label="gini = 0.0\nsamples = 11\nvalue = [11, 0]"] ;
343 -> 344 ;
345 [label="X[5] <= -37.749\ngini = 0.444\nsamples = 3\nvalue = [2, 1]"] ;
343 -> 345 ;
346 [label="gini = 0.0\nsamples = 1\nvalue = [0, 1]"] ;
345 -> 346 ;
347 [label="gini = 0.0\nsamples = 2\nvalue = [2, 0]"] ;
345 -> 347 ;
348 [label="gini = 0.0\nsamples = 4\nvalue = [0, 4]"] ;
338 -> 348 ;
349 [label="gini = 0.0\nsamples = 18\nvalue = [18, 0]"] ;
337 -> 349 ;
350 [label="gini = 0.0\nsamples = 1\nvalue = [0, 1]"] ;
334 -> 350 ;
351 [label="gini = 0.0\nsamples = 100\nvalue = [100, 0]"] ;
333 -> 351 ;
352 [label="X[5] <= -37.72\ngini = 0.48\nsamples = 35\nvalue = [21, 14]"] ;
332 -> 352 ;
353 [label="X[5] <= -37.743\ngini = 0.488\nsamples = 19\nvalue = [8, 11]"] ;
352 -> 353 ;
354 [label="X[0] <= 1.5\ngini = 0.375\nsamples = 8\nvalue = [6, 2]"] ;
353 -> 354 ;
355 [label="gini = 0.0\nsamples = 1\nvalue = [0, 1]"] ;
354 -> 355 ;
356 [label="X[6] <= 145.068\ngini = 0.245\nsamples = 7\nvalue = [6, 1]"] ;
354 -> 356 ;
357 [label="gini = 0.0\nsamples = 6\nvalue = [6, 0]"] ;
356 -> 357 ;
358 [label="gini = 0.0\nsamples = 1\nvalue = [0, 1]"] ;
356 -> 358 ;
359 [label="X[2] <= 894.0\ngini = 0.298\nsamples = 11\nvalue = [2, 9]"] ;
353 -> 359 ;
360 [label="X[0] <= 1.5\ngini = 0.18\nsamples = 10\nvalue = [1, 9]"] ;
359 -> 360 ;
361 [label="X[3] <= 0.5\ngini = 0.5\nsamples = 2\nvalue = [1, 1]"] ;
360 -> 361 ;
362 [label="gini = 0.0\nsamples = 1\nvalue = [1, 0]"] ;
361 -> 362 ;
363 [label="gini = 0.0\nsamples = 1\nvalue = [0, 1]"] ;
361 -> 363 ;
364 [label="gini = 0.0\nsamples = 8\nvalue = [0, 8]"] ;
360 -> 364 ;
365 [label="gini = 0.0\nsamples = 1\nvalue = [1, 0]"] ;
359 -> 365 ;
366 [label="X[2] <= 825.0\ngini = 0.305\nsamples = 16\nvalue = [13, 3]"] ;
352 -> 366 ;
367 [label="gini = 0.0\nsamples = 10\nvalue = [10, 0]"] ;
366 -> 367 ;
368 [label="X[6] <= 145.002\ngini = 0.5\nsamples = 6\nvalue = [3, 3]"] ;
366 -> 368 ;
369 [label="X[6] <= 72.456\ngini = 0.375\nsamples = 4\nvalue = [1, 3]"] ;
368 -> 369 ;
370 [label="gini = 0.0\nsamples = 1\nvalue = [1, 0]"] ;
369 -> 370 ;
371 [label="gini = 0.0\nsamples = 3\nvalue = [0, 3]"] ;
369 -> 371 ;
372 [label="gini = 0.0\nsamples = 2\nvalue = [2, 0]"] ;
368 -> 372 ;
373 [label="X[3] <= 114.5\ngini = 0.131\nsamples = 751\nvalue = [698, 53]"] ;
165 -> 373 ;
374 [label="X[2] <= 19450.0\ngini = 0.084\nsamples = 683\nvalue = [653, 30]"] ;
373 -> 374 ;
375 [label="X[5] <= -37.796\ngini = 0.079\nsamples = 680\nvalue = [652, 28]"] ;
374 -> 375 ;
376 [label="X[4] <= 1959.0\ngini = 0.127\nsamples = 367\nvalue = [342, 25]"] ;
375 -> 376 ;
377 [label="X[2] <= 827.0\ngini = 0.444\nsamples = 3\nvalue = [1, 2]"] ;
376 -> 377 ;
378 [label="gini = 0.0\nsamples = 2\nvalue = [0, 2]"] ;
377 -> 378 ;
379 [label="gini = 0.0\nsamples = 1\nvalue = [1, 0]"] ;
377 -> 379 ;
380 [label="X[5] <= -37.796\ngini = 0.118\nsamples = 364\nvalue = [341, 23]"] ;
376 -> 380 ;
381 [label="X[3] <= 94.5\ngini = 0.114\nsamples = 363\nvalue = [341, 22]"] ;
380 -> 381 ;
382 [label="X[6] <= 145.019\ngini = 0.08\nsamples = 313\nvalue = [300, 13]"] ;
381 -> 382 ;
383 [label="X[5] <= -37.891\ngini = 0.142\nsamples = 156\nvalue = [144, 12]"] ;
382 -> 383 ;
384 [label="X[5] <= -37.908\ngini = 0.43\nsamples = 16\nvalue = [11, 5]"] ;
383 -> 384 ;
385 [label="X[2] <= 514.0\ngini = 0.26\nsamples = 13\nvalue = [11, 2]"] ;
384 -> 385 ;
386 [label="gini = 0.153\nsamples = 12\nvalue = [11, 1]"] ;
385 -> 386 ;
387 [label="gini = 0.0\nsamples = 1\nvalue = [0, 1]"] ;
385 -> 387 ;
388 [label="gini = 0.0\nsamples = 3\nvalue = [0, 3]"] ;
384 -> 388 ;
389 [label="X[2] <= 386.5\ngini = 0.095\nsamples = 140\nvalue = [133, 7]"] ;
383 -> 389 ;
390 [label="X[6] <= 144.938\ngini = 0.278\nsamples = 24\nvalue = [20, 4]"] ;
389 -> 390 ;
391 [label="gini = 0.0\nsamples = 16\nvalue = [16, 0]"] ;
390 -> 391 ;
392 [label="gini = 0.5\nsamples = 8\nvalue = [4, 4]"] ;
390 -> 392 ;
393 [label="X[3] <= 90.0\ngini = 0.05\nsamples = 116\nvalue = [113, 3]"] ;
389 -> 393 ;
394 [label="gini = 0.034\nsamples = 114\nvalue = [112, 2]"] ;
393 -> 394 ;
395 [label="gini = 0.5\nsamples = 2\nvalue = [1, 1]"] ;
393 -> 395 ;
396 [label="X[3] <= 89.5\ngini = 0.013\nsamples = 157\nvalue = [156, 1]"] ;
382 -> 396 ;
397 [label="gini = 0.0\nsamples = 141\nvalue = [141, 0]"] ;
396 -> 397 ;
398 [label="X[6] <= 145.115\ngini = 0.117\nsamples = 16\nvalue = [15, 1]"] ;
396 -> 398 ;
399 [label="gini = 0.0\nsamples = 14\nvalue = [14, 0]"] ;
398 -> 399 ;
400 [label="X[5] <= -37.854\ngini = 0.5\nsamples = 2\nvalue = [1, 1]"] ;
398 -> 400 ;
401 [label="gini = 0.0\nsamples = 1\nvalue = [0, 1]"] ;
400 -> 401 ;
402 [label="gini = 0.0\nsamples = 1\nvalue = [1, 0]"] ;
400 -> 402 ;
403 [label="X[5] <= -37.884\ngini = 0.295\nsamples = 50\nvalue = [41, 9]"] ;
381 -> 403 ;
404 [label="gini = 0.0\nsamples = 25\nvalue = [25, 0]"] ;
403 -> 404 ;
405 [label="X[2] <= 230.0\ngini = 0.461\nsamples = 25\nvalue = [16, 9]"] ;
403 -> 405 ;
406 [label="X[3] <= 105.5\ngini = 0.26\nsamples = 13\nvalue = [11, 2]"] ;
405 -> 406 ;
407 [label="gini = 0.0\nsamples = 11\nvalue = [11, 0]"] ;
406 -> 407 ;
408 [label="gini = 0.0\nsamples = 2\nvalue = [0, 2]"] ;
406 -> 408 ;
409 [label="X[2] <= 285.5\ngini = 0.486\nsamples = 12\nvalue = [5, 7]"] ;
405 -> 409 ;
410 [label="gini = 0.0\nsamples = 5\nvalue = [0, 5]"] ;
409 -> 410 ;
411 [label="X[4] <= 1975.0\ngini = 0.408\nsamples = 7\nvalue = [5, 2]"] ;
409 -> 411 ;
412 [label="gini = 0.0\nsamples = 4\nvalue = [4, 0]"] ;
411 -> 412 ;
413 [label="gini = 0.444\nsamples = 3\nvalue = [1, 2]"] ;
411 -> 413 ;
414 [label="gini = 0.0\nsamples = 1\nvalue = [0, 1]"] ;
380 -> 414 ;
415 [label="X[2] <= 556.5\ngini = 0.019\nsamples = 313\nvalue = [310, 3]"] ;
375 -> 415 ;
416 [label="gini = 0.0\nsamples = 224\nvalue = [224, 0]"] ;
415 -> 416 ;
417 [label="X[2] <= 558.0\ngini = 0.065\nsamples = 89\nvalue = [86, 3]"] ;
415 -> 417 ;
418 [label="gini = 0.0\nsamples = 1\nvalue = [0, 1]"] ;
417 -> 418 ;
419 [label="X[6] <= 145.079\ngini = 0.044\nsamples = 88\nvalue = [86, 2]"] ;
417 -> 419 ;
420 [label="X[5] <= -37.718\ngini = 0.024\nsamples = 83\nvalue = [82, 1]"] ;
419 -> 420 ;
421 [label="gini = 0.0\nsamples = 71\nvalue = [71, 0]"] ;
420 -> 421 ;
422 [label="X[3] <= 30.5\ngini = 0.153\nsamples = 12\nvalue = [11, 1]"] ;
420 -> 422 ;
423 [label="gini = 0.0\nsamples = 1\nvalue = [0, 1]"] ;
422 -> 423 ;
424 [label="gini = 0.0\nsamples = 11\nvalue = [11, 0]"] ;
422 -> 424 ;
425 [label="X[5] <= -37.736\ngini = 0.32\nsamples = 5\nvalue = [4, 1]"] ;
419 -> 425 ;
426 [label="gini = 0.0\nsamples = 1\nvalue = [0, 1]"] ;
425 -> 426 ;
427 [label="gini = 0.0\nsamples = 4\nvalue = [4, 0]"] ;
425 -> 427 ;
428 [label="X[2] <= 29357.5\ngini = 0.444\nsamples = 3\nvalue = [1, 2]"] ;
374 -> 428 ;
429 [label="gini = 0.0\nsamples = 2\nvalue = [0, 2]"] ;
428 -> 429 ;
430 [label="gini = 0.0\nsamples = 1\nvalue = [1, 0]"] ;
428 -> 430 ;
431 [label="X[5] <= -37.791\ngini = 0.448\nsamples = 68\nvalue = [45, 23]"] ;
373 -> 431 ;
432 [label="X[6] <= 144.93\ngini = 0.499\nsamples = 42\nvalue = [22, 20]"] ;
431 -> 432 ;
433 [label="gini = 0.0\nsamples = 8\nvalue = [8, 0]"] ;
432 -> 433 ;
434 [label="X[6] <= 145.027\ngini = 0.484\nsamples = 34\nvalue = [14, 20]"] ;
432 -> 434 ;
435 [label="X[4] <= 1972.5\ngini = 0.363\nsamples = 21\nvalue = [5, 16]"] ;
434 -> 435 ;
436 [label="gini = 0.0\nsamples = 2\nvalue = [2, 0]"] ;
435 -> 436 ;
437 [label="X[2] <= 113.5\ngini = 0.266\nsamples = 19\nvalue = [3, 16]"] ;
435 -> 437 ;
438 [label="X[6] <= 144.99\ngini = 0.5\nsamples = 4\nvalue = [2, 2]"] ;
437 -> 438 ;
439 [label="gini = 0.0\nsamples = 2\nvalue = [0, 2]"] ;
438 -> 439 ;
440 [label="gini = 0.0\nsamples = 2\nvalue = [2, 0]"] ;
438 -> 440 ;
441 [label="X[2] <= 524.0\ngini = 0.124\nsamples = 15\nvalue = [1, 14]"] ;
437 -> 441 ;
442 [label="gini = 0.0\nsamples = 13\nvalue = [0, 13]"] ;
441 -> 442 ;
443 [label="X[3] <= 118.5\ngini = 0.5\nsamples = 2\nvalue = [1, 1]"] ;
441 -> 443 ;
444 [label="gini = 0.0\nsamples = 1\nvalue = [0, 1]"] ;
443 -> 444 ;
445 [label="gini = 0.0\nsamples = 1\nvalue = [1, 0]"] ;
443 -> 445 ;
446 [label="X[2] <= 463.0\ngini = 0.426\nsamples = 13\nvalue = [9, 4]"] ;
434 -> 446 ;
447 [label="gini = 0.0\nsamples = 8\nvalue = [8, 0]"] ;
446 -> 447 ;
448 [label="X[6] <= 145.215\ngini = 0.32\nsamples = 5\nvalue = [1, 4]"] ;
446 -> 448 ;
449 [label="gini = 0.0\nsamples = 4\nvalue = [0, 4]"] ;
448 -> 449 ;
450 [label="gini = 0.0\nsamples = 1\nvalue = [1, 0]"] ;
448 -> 450 ;
451 [label="X[2] <= 639.5\ngini = 0.204\nsamples = 26\nvalue = [23, 3]"] ;
431 -> 451 ;
452 [label="gini = 0.0\nsamples = 22\nvalue = [22, 0]"] ;
451 -> 452 ;
453 [label="X[5] <= -37.774\ngini = 0.375\nsamples = 4\nvalue = [1, 3]"] ;
451 -> 453 ;
454 [label="gini = 0.0\nsamples = 1\nvalue = [1, 0]"] ;
453 -> 454 ;
455 [label="gini = 0.0\nsamples = 3\nvalue = [0, 3]"] ;
453 -> 455 ;
456 [label="X[5] <= -37.749\ngini = 0.499\nsamples = 9373\nvalue = [4434, 4939]"] ;
0 -> 456 [labeldistance=2.5, labelangle=-45, headlabel="False"] ;
457 [label="X[6] <= 144.874\ngini = 0.441\nsamples = 5657\nvalue = [1860, 3797]"] ;
456 -> 457 ;
458 [label="X[1] <= 2.5\ngini = 0.172\nsamples = 653\nvalue = [591, 62]"] ;
457 -> 458 ;
459 [label="X[2] <= 751.5\ngini = 0.132\nsamples = 621\nvalue = [577, 44]"] ;
458 -> 459 ;
460 [label="X[6] <= 144.87\ngini = 0.097\nsamples = 589\nvalue = [559, 30]"] ;
459 -> 460 ;
461 [label="X[3] <= 197.0\ngini = 0.06\nsamples = 545\nvalue = [528, 17]"] ;
460 -> 461 ;
462 [label="X[5] <= -37.829\ngini = 0.049\nsamples = 522\nvalue = [509, 13]"] ;
461 -> 462 ;
463 [label="X[2] <= 632.5\ngini = 0.123\nsamples = 182\nvalue = [170, 12]"] ;
462 -> 463 ;
464 [label="X[5] <= -37.83\ngini = 0.049\nsamples = 158\nvalue = [154, 4]"] ;
463 -> 464 ;
465 [label="X[1] <= 1.5\ngini = 0.038\nsamples = 154\nvalue = [151, 3]"] ;
464 -> 465 ;
466 [label="X[3] <= 111.5\ngini = 0.1\nsamples = 57\nvalue = [54, 3]"] ;
465 -> 466 ;
467 [label="X[2] <= 569.5\ngini = 0.042\nsamples = 47\nvalue = [46, 1]"] ;
466 -> 467 ;
468 [label="gini = 0.0\nsamples = 33\nvalue = [33, 0]"] ;
467 -> 468 ;
469 [label="gini = 0.133\nsamples = 14\nvalue = [13, 1]"] ;
467 -> 469 ;
470 [label="X[3] <= 113.5\ngini = 0.32\nsamples = 10\nvalue = [8, 2]"] ;
466 -> 470 ;
471 [label="gini = 0.0\nsamples = 1\nvalue = [0, 1]"] ;
470 -> 471 ;
472 [label="gini = 0.198\nsamples = 9\nvalue = [8, 1]"] ;
470 -> 472 ;
473 [label="gini = 0.0\nsamples = 97\nvalue = [97, 0]"] ;
465 -> 473 ;
474 [label="X[5] <= -37.83\ngini = 0.375\nsamples = 4\nvalue = [3, 1]"] ;
464 -> 474 ;
475 [label="gini = 0.0\nsamples = 1\nvalue = [0, 1]"] ;
474 -> 475 ;
476 [label="gini = 0.0\nsamples = 3\nvalue = [3, 0]"] ;
474 -> 476 ;
477 [label="X[6] <= 144.808\ngini = 0.444\nsamples = 24\nvalue = [16, 8]"] ;
463 -> 477 ;
478 [label="gini = 0.0\nsamples = 11\nvalue = [11, 0]"] ;
477 -> 478 ;
479 [label="X[6] <= 144.859\ngini = 0.473\nsamples = 13\nvalue = [5, 8]"] ;
477 -> 479 ;
480 [label="X[2] <= 717.0\ngini = 0.397\nsamples = 11\nvalue = [3, 8]"] ;
479 -> 480 ;
481 [label="X[2] <= 661.0\ngini = 0.219\nsamples = 8\nvalue = [1, 7]"] ;
480 -> 481 ;
482 [label="gini = 0.444\nsamples = 3\nvalue = [1, 2]"] ;
481 -> 482 ;
483 [label="gini = 0.0\nsamples = 5\nvalue = [0, 5]"] ;
481 -> 483 ;
484 [label="X[5] <= -37.868\ngini = 0.444\nsamples = 3\nvalue = [2, 1]"] ;
480 -> 484 ;
485 [label="gini = 0.0\nsamples = 1\nvalue = [0, 1]"] ;
484 -> 485 ;
486 [label="gini = 0.0\nsamples = 2\nvalue = [2, 0]"] ;
484 -> 486 ;
487 [label="gini = 0.0\nsamples = 2\nvalue = [2, 0]"] ;
479 -> 487 ;
488 [label="X[2] <= 18.0\ngini = 0.006\nsamples = 340\nvalue = [339, 1]"] ;
462 -> 488 ;
489 [label="X[3] <= 89.5\ngini = 0.074\nsamples = 26\nvalue = [25, 1]"] ;
488 -> 489 ;
490 [label="gini = 0.0\nsamples = 17\nvalue = [17, 0]"] ;
489 -> 490 ;
491 [label="X[3] <= 96.0\ngini = 0.198\nsamples = 9\nvalue = [8, 1]"] ;
489 -> 491 ;
492 [label="gini = 0.0\nsamples = 1\nvalue = [0, 1]"] ;
491 -> 492 ;
493 [label="gini = 0.0\nsamples = 8\nvalue = [8, 0]"] ;
491 -> 493 ;
494 [label="gini = 0.0\nsamples = 314\nvalue = [314, 0]"] ;
488 -> 494 ;
495 [label="X[6] <= 144.864\ngini = 0.287\nsamples = 23\nvalue = [19, 4]"] ;
461 -> 495 ;
496 [label="X[3] <= 198.5\ngini = 0.1\nsamples = 19\nvalue = [18, 1]"] ;
495 -> 496 ;
497 [label="gini = 0.0\nsamples = 1\nvalue = [0, 1]"] ;
496 -> 497 ;
498 [label="gini = 0.0\nsamples = 18\nvalue = [18, 0]"] ;
496 -> 498 ;
499 [label="X[5] <= -37.762\ngini = 0.375\nsamples = 4\nvalue = [1, 3]"] ;
495 -> 499 ;
500 [label="gini = 0.0\nsamples = 2\nvalue = [0, 2]"] ;
499 -> 500 ;
501 [label="X[2] <= 172.0\ngini = 0.5\nsamples = 2\nvalue = [1, 1]"] ;
499 -> 501 ;
502 [label="gini = 0.0\nsamples = 1\nvalue = [0, 1]"] ;
501 -> 502 ;
503 [label="gini = 0.0\nsamples = 1\nvalue = [1, 0]"] ;
501 -> 503 ;
504 [label="X[0] <= 3.5\ngini = 0.416\nsamples = 44\nvalue = [31, 13]"] ;
460 -> 504 ;
505 [label="X[6] <= 144.872\ngini = 0.291\nsamples = 34\nvalue = [28, 6]"] ;
504 -> 505 ;
506 [label="X[6] <= 144.872\ngini = 0.459\nsamples = 14\nvalue = [9, 5]"] ;
505 -> 506 ;
507 [label="X[4] <= 1937.5\ngini = 0.375\nsamples = 12\nvalue = [9, 3]"] ;
506 -> 507 ;
508 [label="X[5] <= -37.839\ngini = 0.198\nsamples = 9\nvalue = [8, 1]"] ;
507 -> 508 ;
509 [label="gini = 0.0\nsamples = 1\nvalue = [0, 1]"] ;
508 -> 509 ;
510 [label="gini = 0.0\nsamples = 8\nvalue = [8, 0]"] ;
508 -> 510 ;
511 [label="X[6] <= 144.872\ngini = 0.444\nsamples = 3\nvalue = [1, 2]"] ;
507 -> 511 ;
512 [label="gini = 0.0\nsamples = 2\nvalue = [0, 2]"] ;
511 -> 512 ;
513 [label="gini = 0.0\nsamples = 1\nvalue = [1, 0]"] ;
511 -> 513 ;
514 [label="gini = 0.0\nsamples = 2\nvalue = [0, 2]"] ;
506 -> 514 ;
515 [label="X[2] <= 62.5\ngini = 0.095\nsamples = 20\nvalue = [19, 1]"] ;
505 -> 515 ;
516 [label="X[5] <= -37.806\ngini = 0.5\nsamples = 2\nvalue = [1, 1]"] ;
515 -> 516 ;
517 [label="gini = 0.0\nsamples = 1\nvalue = [0, 1]"] ;
516 -> 517 ;
518 [label="gini = 0.0\nsamples = 1\nvalue = [1, 0]"] ;
516 -> 518 ;
519 [label="gini = 0.0\nsamples = 18\nvalue = [18, 0]"] ;
515 -> 519 ;
520 [label="X[1] <= 1.5\ngini = 0.42\nsamples = 10\nvalue = [3, 7]"] ;
504 -> 520 ;
521 [label="gini = 0.0\nsamples = 2\nvalue = [2, 0]"] ;
520 -> 521 ;
522 [label="X[5] <= -37.829\ngini = 0.219\nsamples = 8\nvalue = [1, 7]"] ;
520 -> 522 ;
523 [label="X[3] <= 155.5\ngini = 0.444\nsamples = 3\nvalue = [1, 2]"] ;
522 -> 523 ;
524 [label="gini = 0.0\nsamples = 1\nvalue = [1, 0]"] ;
523 -> 524 ;
525 [label="gini = 0.0\nsamples = 2\nvalue = [0, 2]"] ;
523 -> 525 ;
526 [label="gini = 0.0\nsamples = 5\nvalue = [0, 5]"] ;
522 -> 526 ;
527 [label="X[6] <= 144.824\ngini = 0.492\nsamples = 32\nvalue = [18, 14]"] ;
459 -> 527 ;
528 [label="X[2] <= 2815.5\ngini = 0.124\nsamples = 15\nvalue = [14, 1]"] ;
527 -> 528 ;
529 [label="gini = 0.0\nsamples = 14\nvalue = [14, 0]"] ;
528 -> 529 ;
530 [label="gini = 0.0\nsamples = 1\nvalue = [0, 1]"] ;
528 -> 530 ;
531 [label="X[5] <= -37.839\ngini = 0.36\nsamples = 17\nvalue = [4, 13]"] ;
527 -> 531 ;
532 [label="gini = 0.0\nsamples = 9\nvalue = [0, 9]"] ;
531 -> 532 ;
533 [label="X[3] <= 222.0\ngini = 0.5\nsamples = 8\nvalue = [4, 4]"] ;
531 -> 533 ;
534 [label="X[6] <= 144.861\ngini = 0.444\nsamples = 6\nvalue = [4, 2]"] ;
533 -> 534 ;
535 [label="gini = 0.0\nsamples = 4\nvalue = [4, 0]"] ;
534 -> 535 ;
536 [label="gini = 0.0\nsamples = 2\nvalue = [0, 2]"] ;
534 -> 536 ;
537 [label="gini = 0.0\nsamples = 2\nvalue = [0, 2]"] ;
533 -> 537 ;
538 [label="X[0] <= 3.5\ngini = 0.492\nsamples = 32\nvalue = [14, 18]"] ;
458 -> 538 ;
539 [label="X[6] <= 144.86\ngini = 0.298\nsamples = 11\nvalue = [9, 2]"] ;
538 -> 539 ;
540 [label="gini = 0.0\nsamples = 8\nvalue = [8, 0]"] ;
539 -> 540 ;
541 [label="X[4] <= 990.0\ngini = 0.444\nsamples = 3\nvalue = [1, 2]"] ;
539 -> 541 ;
542 [label="gini = 0.0\nsamples = 1\nvalue = [1, 0]"] ;
541 -> 542 ;
543 [label="gini = 0.0\nsamples = 2\nvalue = [0, 2]"] ;
541 -> 543 ;
544 [label="X[2] <= 370.0\ngini = 0.363\nsamples = 21\nvalue = [5, 16]"] ;
538 -> 544 ;
545 [label="X[5] <= -37.829\ngini = 0.32\nsamples = 5\nvalue = [4, 1]"] ;
544 -> 545 ;
546 [label="X[0] <= 5.5\ngini = 0.5\nsamples = 2\nvalue = [1, 1]"] ;
545 -> 546 ;
547 [label="gini = 0.0\nsamples = 1\nvalue = [0, 1]"] ;
546 -> 547 ;
548 [label="gini = 0.0\nsamples = 1\nvalue = [1, 0]"] ;
546 -> 548 ;
549 [label="gini = 0.0\nsamples = 3\nvalue = [3, 0]"] ;
545 -> 549 ;
550 [label="X[5] <= -37.753\ngini = 0.117\nsamples = 16\nvalue = [1, 15]"] ;
544 -> 550 ;
551 [label="gini = 0.0\nsamples = 14\nvalue = [0, 14]"] ;
550 -> 551 ;
552 [label="X[6] <= 144.869\ngini = 0.5\nsamples = 2\nvalue = [1, 1]"] ;
550 -> 552 ;
553 [label="gini = 0.0\nsamples = 1\nvalue = [0, 1]"] ;
552 -> 553 ;
554 [label="gini = 0.0\nsamples = 1\nvalue = [1, 0]"] ;
552 -> 554 ;
555 [label="X[6] <= 145.172\ngini = 0.379\nsamples = 5004\nvalue = [1269, 3735]"] ;
457 -> 555 ;
556 [label="X[2] <= 391.5\ngini = 0.333\nsamples = 4562\nvalue = [963, 3599]"] ;
555 -> 556 ;
557 [label="X[4] <= 1935.5\ngini = 0.434\nsamples = 2112\nvalue = [672, 1440]"] ;
556 -> 557 ;
558 [label="X[6] <= 144.92\ngini = 0.346\nsamples = 1298\nvalue = [289, 1009]"] ;
557 -> 558 ;
559 [label="X[6] <= 144.879\ngini = 0.5\nsamples = 185\nvalue = [93, 92]"] ;
558 -> 559 ;
560 [label="X[6] <= 144.875\ngini = 0.1\nsamples = 19\nvalue = [18, 1]"] ;
559 -> 560 ;
561 [label="X[6] <= 144.875\ngini = 0.444\nsamples = 3\nvalue = [2, 1]"] ;
560 -> 561 ;
562 [label="gini = 0.0\nsamples = 2\nvalue = [2, 0]"] ;
561 -> 562 ;
563 [label="gini = 0.0\nsamples = 1\nvalue = [0, 1]"] ;
561 -> 563 ;
564 [label="gini = 0.0\nsamples = 16\nvalue = [16, 0]"] ;
560 -> 564 ;
565 [label="X[5] <= -37.842\ngini = 0.495\nsamples = 166\nvalue = [75, 91]"] ;
559 -> 565 ;
566 [label="X[6] <= 144.905\ngini = 0.231\nsamples = 30\nvalue = [4, 26]"] ;
565 -> 566 ;
567 [label="X[2] <= 291.0\ngini = 0.185\nsamples = 29\nvalue = [3, 26]"] ;
566 -> 567 ;
568 [label="X[2] <= 259.5\ngini = 0.32\nsamples = 15\nvalue = [3, 12]"] ;
567 -> 568 ;
569 [label="gini = 0.0\nsamples = 9\nvalue = [0, 9]"] ;
568 -> 569 ;
570 [label="X[5] <= -37.851\ngini = 0.5\nsamples = 6\nvalue = [3, 3]"] ;
568 -> 570 ;
571 [label="gini = 0.375\nsamples = 4\nvalue = [3, 1]"] ;
570 -> 571 ;
572 [label="gini = 0.0\nsamples = 2\nvalue = [0, 2]"] ;
570 -> 572 ;
573 [label="gini = 0.0\nsamples = 14\nvalue = [0, 14]"] ;
567 -> 573 ;
574 [label="gini = 0.0\nsamples = 1\nvalue = [1, 0]"] ;
566 -> 574 ;
575 [label="X[2] <= 224.5\ngini = 0.499\nsamples = 136\nvalue = [71, 65]"] ;
565 -> 575 ;
576 [label="X[3] <= 104.5\ngini = 0.408\nsamples = 49\nvalue = [35, 14]"] ;
575 -> 576 ;
577 [label="X[0] <= 4.5\ngini = 0.314\nsamples = 41\nvalue = [33, 8]"] ;
576 -> 577 ;
578 [label="X[2] <= 74.0\ngini = 0.26\nsamples = 39\nvalue = [33, 6]"] ;
577 -> 578 ;
579 [label="gini = 0.42\nsamples = 20\nvalue = [14, 6]"] ;
578 -> 579 ;
580 [label="gini = 0.0\nsamples = 19\nvalue = [19, 0]"] ;
578 -> 580 ;
581 [label="gini = 0.0\nsamples = 2\nvalue = [0, 2]"] ;
577 -> 581 ;
582 [label="X[4] <= 1895.0\ngini = 0.375\nsamples = 8\nvalue = [2, 6]"] ;
576 -> 582 ;
583 [label="gini = 0.0\nsamples = 2\nvalue = [2, 0]"] ;
582 -> 583 ;
584 [label="gini = 0.0\nsamples = 6\nvalue = [0, 6]"] ;
582 -> 584 ;
585 [label="X[5] <= -37.819\ngini = 0.485\nsamples = 87\nvalue = [36, 51]"] ;
575 -> 585 ;
586 [label="X[4] <= 1905.0\ngini = 0.32\nsamples = 10\nvalue = [8, 2]"] ;
585 -> 586 ;
587 [label="X[6] <= 144.891\ngini = 0.444\nsamples = 6\nvalue = [4, 2]"] ;
586 -> 587 ;
588 [label="gini = 0.32\nsamples = 5\nvalue = [4, 1]"] ;
587 -> 588 ;
589 [label="gini = 0.0\nsamples = 1\nvalue = [0, 1]"] ;
587 -> 589 ;
590 [label="gini = 0.0\nsamples = 4\nvalue = [4, 0]"] ;
586 -> 590 ;
591 [label="X[5] <= -37.807\ngini = 0.463\nsamples = 77\nvalue = [28, 49]"] ;
585 -> 591 ;
592 [label="X[6] <= 144.881\ngini = 0.08\nsamples = 24\nvalue = [1, 23]"] ;
591 -> 592 ;
593 [label="gini = 0.5\nsamples = 2\nvalue = [1, 1]"] ;
592 -> 593 ;
594 [label="gini = 0.0\nsamples = 22\nvalue = [0, 22]"] ;
592 -> 594 ;
595 [label="X[2] <= 372.5\ngini = 0.5\nsamples = 53\nvalue = [27, 26]"] ;
591 -> 595 ;
596 [label="gini = 0.489\nsamples = 47\nvalue = [27, 20]"] ;
595 -> 596 ;
597 [label="gini = 0.0\nsamples = 6\nvalue = [0, 6]"] ;
595 -> 597 ;
598 [label="X[6] <= 145.064\ngini = 0.29\nsamples = 1113\nvalue = [196, 917]"] ;
558 -> 598 ;
599 [label="X[5] <= -37.772\ngini = 0.218\nsamples = 924\nvalue = [115, 809]"] ;
598 -> 599 ;
600 [label="X[5] <= -37.921\ngini = 0.168\nsamples = 786\nvalue = [73, 713]"] ;
599 -> 600 ;
601 [label="X[6] <= 145.017\ngini = 0.444\nsamples = 51\nvalue = [17, 34]"] ;
600 -> 601 ;
602 [label="gini = 0.0\nsamples = 13\nvalue = [0, 13]"] ;
601 -> 602 ;
603 [label="X[2] <= 68.5\ngini = 0.494\nsamples = 38\nvalue = [17, 21]"] ;
601 -> 603 ;
604 [label="X[1] <= 1.5\ngini = 0.332\nsamples = 19\nvalue = [4, 15]"] ;
603 -> 604 ;
605 [label="gini = 0.494\nsamples = 9\nvalue = [4, 5]"] ;
604 -> 605 ;
606 [label="gini = 0.0\nsamples = 10\nvalue = [0, 10]"] ;
604 -> 606 ;
607 [label="X[2] <= 289.5\ngini = 0.432\nsamples = 19\nvalue = [13, 6]"] ;
603 -> 607 ;
608 [label="gini = 0.0\nsamples = 11\nvalue = [11, 0]"] ;
607 -> 608 ;
609 [label="gini = 0.375\nsamples = 8\nvalue = [2, 6]"] ;
607 -> 609 ;
610 [label="X[6] <= 144.935\ngini = 0.141\nsamples = 735\nvalue = [56, 679]"] ;
600 -> 610 ;
611 [label="X[5] <= -37.791\ngini = 0.38\nsamples = 55\nvalue = [14, 41]"] ;
610 -> 611 ;
612 [label="X[6] <= 144.932\ngini = 0.08\nsamples = 24\nvalue = [1, 23]"] ;
611 -> 612 ;
613 [label="gini = 0.0\nsamples = 18\nvalue = [0, 18]"] ;
612 -> 613 ;
614 [label="gini = 0.278\nsamples = 6\nvalue = [1, 5]"] ;
612 -> 614 ;
615 [label="X[5] <= -37.786\ngini = 0.487\nsamples = 31\nvalue = [13, 18]"] ;
611 -> 615 ;
616 [label="gini = 0.198\nsamples = 9\nvalue = [8, 1]"] ;
615 -> 616 ;
617 [label="gini = 0.351\nsamples = 22\nvalue = [5, 17]"] ;
615 -> 617 ;
618 [label="X[2] <= 111.5\ngini = 0.116\nsamples = 680\nvalue = [42, 638]"] ;
610 -> 618 ;
619 [label="X[3] <= 114.5\ngini = 0.237\nsamples = 189\nvalue = [26, 163]"] ;
618 -> 619 ;
620 [label="gini = 0.279\nsamples = 155\nvalue = [26, 129]"] ;
619 -> 620 ;
621 [label="gini = 0.0\nsamples = 34\nvalue = [0, 34]"] ;
619 -> 621 ;
622 [label="X[5] <= -37.897\ngini = 0.063\nsamples = 491\nvalue = [16, 475]"] ;
618 -> 622 ;
623 [label="gini = 0.363\nsamples = 21\nvalue = [5, 16]"] ;
622 -> 623 ;
624 [label="gini = 0.046\nsamples = 470\nvalue = [11, 459]"] ;
622 -> 624 ;
625 [label="X[2] <= 243.5\ngini = 0.423\nsamples = 138\nvalue = [42, 96]"] ;
599 -> 625 ;
626 [label="X[0] <= 3.5\ngini = 0.499\nsamples = 58\nvalue = [28, 30]"] ;
625 -> 626 ;
627 [label="X[6] <= 144.953\ngini = 0.486\nsamples = 48\nvalue = [28, 20]"] ;
626 -> 627 ;
628 [label="X[4] <= 1925.0\ngini = 0.245\nsamples = 7\nvalue = [1, 6]"] ;
627 -> 628 ;
629 [label="gini = 0.0\nsamples = 6\nvalue = [0, 6]"] ;
628 -> 629 ;
630 [label="gini = 0.0\nsamples = 1\nvalue = [1, 0]"] ;
628 -> 630 ;
631 [label="X[5] <= -37.755\ngini = 0.45\nsamples = 41\nvalue = [27, 14]"] ;
627 -> 631 ;
632 [label="gini = 0.383\nsamples = 31\nvalue = [23, 8]"] ;
631 -> 632 ;
633 [label="gini = 0.48\nsamples = 10\nvalue = [4, 6]"] ;
631 -> 633 ;
634 [label="gini = 0.0\nsamples = 10\nvalue = [0, 10]"] ;
626 -> 634 ;
635 [label="X[3] <= 121.5\ngini = 0.289\nsamples = 80\nvalue = [14, 66]"] ;
625 -> 635 ;
636 [label="X[3] <= 116.5\ngini = 0.375\nsamples = 56\nvalue = [14, 42]"] ;
635 -> 636 ;
637 [label="X[6] <= 145.025\ngini = 0.329\nsamples = 53\nvalue = [11, 42]"] ;
636 -> 637 ;
638 [label="gini = 0.295\nsamples = 50\nvalue = [9, 41]"] ;
637 -> 638 ;
639 [label="gini = 0.444\nsamples = 3\nvalue = [2, 1]"] ;
637 -> 639 ;
640 [label="gini = 0.0\nsamples = 3\nvalue = [3, 0]"] ;
636 -> 640 ;
641 [label="gini = 0.0\nsamples = 24\nvalue = [0, 24]"] ;
635 -> 641 ;
642 [label="X[5] <= -37.892\ngini = 0.49\nsamples = 189\nvalue = [81, 108]"] ;
598 -> 642 ;
643 [label="X[6] <= 145.105\ngini = 0.397\nsamples = 66\nvalue = [48, 18]"] ;
642 -> 643 ;
644 [label="X[0] <= 3.5\ngini = 0.469\nsamples = 48\nvalue = [30, 18]"] ;
643 -> 644 ;
645 [label="X[2] <= 56.0\ngini = 0.381\nsamples = 39\nvalue = [29, 10]"] ;
644 -> 645 ;
646 [label="X[1] <= 0.5\ngini = 0.498\nsamples = 15\nvalue = [8, 7]"] ;
645 -> 646 ;
647 [label="gini = 0.0\nsamples = 4\nvalue = [4, 0]"] ;
646 -> 647 ;
648 [label="gini = 0.463\nsamples = 11\nvalue = [4, 7]"] ;
646 -> 648 ;
649 [label="X[2] <= 356.0\ngini = 0.219\nsamples = 24\nvalue = [21, 3]"] ;
645 -> 649 ;
650 [label="gini = 0.159\nsamples = 23\nvalue = [21, 2]"] ;
649 -> 650 ;
651 [label="gini = 0.0\nsamples = 1\nvalue = [0, 1]"] ;
649 -> 651 ;
652 [label="X[1] <= 0.5\ngini = 0.198\nsamples = 9\nvalue = [1, 8]"] ;
644 -> 652 ;
653 [label="X[6] <= 145.1\ngini = 0.5\nsamples = 2\nvalue = [1, 1]"] ;
652 -> 653 ;
654 [label="gini = 0.0\nsamples = 1\nvalue = [1, 0]"] ;
653 -> 654 ;
655 [label="gini = 0.0\nsamples = 1\nvalue = [0, 1]"] ;
653 -> 655 ;
656 [label="gini = 0.0\nsamples = 7\nvalue = [0, 7]"] ;
652 -> 656 ;
657 [label="gini = 0.0\nsamples = 18\nvalue = [18, 0]"] ;
643 -> 657 ;
658 [label="X[5] <= -37.785\ngini = 0.393\nsamples = 123\nvalue = [33, 90]"] ;
642 -> 658 ;
659 [label="X[1] <= 1.5\ngini = 0.308\nsamples = 100\nvalue = [19, 81]"] ;
658 -> 659 ;
660 [label="X[2] <= 94.5\ngini = 0.48\nsamples = 25\nvalue = [10, 15]"] ;
659 -> 660 ;
661 [label="X[6] <= 145.09\ngini = 0.291\nsamples = 17\nvalue = [3, 14]"] ;
660 -> 661 ;
662 [label="gini = 0.49\nsamples = 7\nvalue = [3, 4]"] ;
661 -> 662 ;
663 [label="gini = 0.0\nsamples = 10\nvalue = [0, 10]"] ;
661 -> 663 ;
664 [label="X[6] <= 145.078\ngini = 0.219\nsamples = 8\nvalue = [7, 1]"] ;
660 -> 664 ;
665 [label="gini = 0.0\nsamples = 1\nvalue = [0, 1]"] ;
664 -> 665 ;
666 [label="gini = 0.0\nsamples = 7\nvalue = [7, 0]"] ;
664 -> 666 ;
667 [label="X[6] <= 145.08\ngini = 0.211\nsamples = 75\nvalue = [9, 66]"] ;
659 -> 667 ;
668 [label="gini = 0.0\nsamples = 25\nvalue = [0, 25]"] ;
667 -> 668 ;
669 [label="X[2] <= 47.0\ngini = 0.295\nsamples = 50\nvalue = [9, 41]"] ;
667 -> 669 ;
670 [label="gini = 0.124\nsamples = 30\nvalue = [2, 28]"] ;
669 -> 670 ;
671 [label="gini = 0.455\nsamples = 20\nvalue = [7, 13]"] ;
669 -> 671 ;
672 [label="X[0] <= 3.5\ngini = 0.476\nsamples = 23\nvalue = [14, 9]"] ;
658 -> 672 ;
673 [label="X[6] <= 145.133\ngini = 0.291\nsamples = 17\nvalue = [14, 3]"] ;
672 -> 673 ;
674 [label="X[6] <= 145.068\ngini = 0.133\nsamples = 14\nvalue = [13, 1]"] ;
673 -> 674 ;
675 [label="gini = 0.5\nsamples = 2\nvalue = [1, 1]"] ;
674 -> 675 ;
676 [label="gini = 0.0\nsamples = 12\nvalue = [12, 0]"] ;
674 -> 676 ;
677 [label="X[5] <= -37.769\ngini = 0.444\nsamples = 3\nvalue = [1, 2]"] ;
673 -> 677 ;
678 [label="gini = 0.0\nsamples = 1\nvalue = [1, 0]"] ;
677 -> 678 ;
679 [label="gini = 0.0\nsamples = 2\nvalue = [0, 2]"] ;
677 -> 679 ;
680 [label="gini = 0.0\nsamples = 6\nvalue = [0, 6]"] ;
672 -> 680 ;
681 [label="X[3] <= 161.5\ngini = 0.498\nsamples = 814\nvalue = [383, 431]"] ;
557 -> 681 ;
682 [label="X[5] <= -37.769\ngini = 0.483\nsamples = 585\nvalue = [346, 239]"] ;
681 -> 682 ;
683 [label="X[1] <= 1.5\ngini = 0.494\nsamples = 507\nvalue = [281, 226]"] ;
682 -> 683 ;
684 [label="X[3] <= 120.5\ngini = 0.407\nsamples = 148\nvalue = [106, 42]"] ;
683 -> 684 ;
685 [label="X[6] <= 144.927\ngini = 0.282\nsamples = 106\nvalue = [88, 18]"] ;
684 -> 685 ;
686 [label="gini = 0.0\nsamples = 20\nvalue = [20, 0]"] ;
685 -> 686 ;
687 [label="X[6] <= 145.05\ngini = 0.331\nsamples = 86\nvalue = [68, 18]"] ;
685 -> 687 ;
688 [label="X[2] <= 100.5\ngini = 0.434\nsamples = 44\nvalue = [30, 14]"] ;
687 -> 688 ;
689 [label="gini = 0.091\nsamples = 21\nvalue = [20, 1]"] ;
688 -> 689 ;
690 [label="gini = 0.491\nsamples = 23\nvalue = [10, 13]"] ;
688 -> 690 ;
691 [label="X[6] <= 145.155\ngini = 0.172\nsamples = 42\nvalue = [38, 4]"] ;
687 -> 691 ;
692 [label="gini = 0.1\nsamples = 38\nvalue = [36, 2]"] ;
691 -> 692 ;
693 [label="gini = 0.5\nsamples = 4\nvalue = [2, 2]"] ;
691 -> 693 ;
694 [label="X[4] <= 1994.5\ngini = 0.49\nsamples = 42\nvalue = [18, 24]"] ;
684 -> 694 ;
695 [label="X[5] <= -37.952\ngini = 0.412\nsamples = 31\nvalue = [9, 22]"] ;
694 -> 695 ;
696 [label="gini = 0.0\nsamples = 2\nvalue = [2, 0]"] ;
695 -> 696 ;
697 [label="X[6] <= 144.883\ngini = 0.366\nsamples = 29\nvalue = [7, 22]"] ;
695 -> 697 ;
698 [label="gini = 0.444\nsamples = 3\nvalue = [2, 1]"] ;
697 -> 698 ;
699 [label="gini = 0.311\nsamples = 26\nvalue = [5, 21]"] ;
697 -> 699 ;
700 [label="X[5] <= -37.911\ngini = 0.298\nsamples = 11\nvalue = [9, 2]"] ;
694 -> 700 ;
701 [label="gini = 0.0\nsamples = 1\nvalue = [0, 1]"] ;
700 -> 701 ;
702 [label="X[0] <= 3.5\ngini = 0.18\nsamples = 10\nvalue = [9, 1]"] ;
700 -> 702 ;
703 [label="gini = 0.0\nsamples = 9\nvalue = [9, 0]"] ;
702 -> 703 ;
704 [label="gini = 0.0\nsamples = 1\nvalue = [0, 1]"] ;
702 -> 704 ;
705 [label="X[3] <= 2.0\ngini = 0.5\nsamples = 359\nvalue = [175, 184]"] ;
683 -> 705 ;
706 [label="X[6] <= 145.106\ngini = 0.418\nsamples = 101\nvalue = [30, 71]"] ;
705 -> 706 ;
707 [label="X[2] <= 105.5\ngini = 0.364\nsamples = 92\nvalue = [22, 70]"] ;
706 -> 707 ;
708 [label="X[4] <= 1983.5\ngini = 0.497\nsamples = 28\nvalue = [13, 15]"] ;
707 -> 708 ;
709 [label="gini = 0.219\nsamples = 8\nvalue = [1, 7]"] ;
708 -> 709 ;
710 [label="gini = 0.48\nsamples = 20\nvalue = [12, 8]"] ;
708 -> 710 ;
711 [label="X[6] <= 145.066\ngini = 0.242\nsamples = 64\nvalue = [9, 55]"] ;
707 -> 711 ;
712 [label="gini = 0.122\nsamples = 46\nvalue = [3, 43]"] ;
711 -> 712 ;
713 [label="gini = 0.444\nsamples = 18\nvalue = [6, 12]"] ;
711 -> 713 ;
714 [label="X[6] <= 145.163\ngini = 0.198\nsamples = 9\nvalue = [8, 1]"] ;
706 -> 714 ;
715 [label="gini = 0.0\nsamples = 8\nvalue = [8, 0]"] ;
714 -> 715 ;
716 [label="gini = 0.0\nsamples = 1\nvalue = [0, 1]"] ;
714 -> 716 ;
717 [label="X[3] <= 124.5\ngini = 0.492\nsamples = 258\nvalue = [145, 113]"] ;
705 -> 717 ;
718 [label="X[2] <= 337.0\ngini = 0.405\nsamples = 103\nvalue = [74, 29]"] ;
717 -> 718 ;
719 [label="X[6] <= 145.016\ngini = 0.352\nsamples = 92\nvalue = [71, 21]"] ;
718 -> 719 ;
720 [label="gini = 0.476\nsamples = 46\nvalue = [28, 18]"] ;
719 -> 720 ;
721 [label="gini = 0.122\nsamples = 46\nvalue = [43, 3]"] ;
719 -> 721 ;
722 [label="X[2] <= 386.0\ngini = 0.397\nsamples = 11\nvalue = [3, 8]"] ;
718 -> 722 ;
723 [label="gini = 0.0\nsamples = 8\nvalue = [0, 8]"] ;
722 -> 723 ;
724 [label="gini = 0.0\nsamples = 3\nvalue = [3, 0]"] ;
722 -> 724 ;
725 [label="X[6] <= 144.903\ngini = 0.496\nsamples = 155\nvalue = [71, 84]"] ;
717 -> 725 ;
726 [label="X[6] <= 144.879\ngini = 0.32\nsamples = 25\nvalue = [20, 5]"] ;
725 -> 726 ;
727 [label="gini = 0.0\nsamples = 3\nvalue = [0, 3]"] ;
726 -> 727 ;
728 [label="gini = 0.165\nsamples = 22\nvalue = [20, 2]"] ;
726 -> 728 ;
729 [label="X[6] <= 145.056\ngini = 0.477\nsamples = 130\nvalue = [51, 79]"] ;
725 -> 729 ;
730 [label="gini = 0.305\nsamples = 64\nvalue = [12, 52]"] ;
729 -> 730 ;
731 [label="gini = 0.483\nsamples = 66\nvalue = [39, 27]"] ;
729 -> 731 ;
732 [label="X[4] <= 1977.5\ngini = 0.278\nsamples = 78\nvalue = [65, 13]"] ;
682 -> 732 ;
733 [label="X[5] <= -37.76\ngini = 0.49\nsamples = 14\nvalue = [8, 6]"] ;
732 -> 733 ;
734 [label="X[2] <= 359.5\ngini = 0.278\nsamples = 6\nvalue = [1, 5]"] ;
733 -> 734 ;
735 [label="gini = 0.0\nsamples = 5\nvalue = [0, 5]"] ;
734 -> 735 ;
736 [label="gini = 0.0\nsamples = 1\nvalue = [1, 0]"] ;
734 -> 736 ;
737 [label="X[2] <= 69.0\ngini = 0.219\nsamples = 8\nvalue = [7, 1]"] ;
733 -> 737 ;
738 [label="gini = 0.0\nsamples = 1\nvalue = [0, 1]"] ;
737 -> 738 ;
739 [label="gini = 0.0\nsamples = 7\nvalue = [7, 0]"] ;
737 -> 739 ;
740 [label="X[2] <= 313.5\ngini = 0.195\nsamples = 64\nvalue = [57, 7]"] ;
732 -> 740 ;
741 [label="X[4] <= 2015.5\ngini = 0.153\nsamples = 60\nvalue = [55, 5]"] ;
740 -> 741 ;
742 [label="X[2] <= 157.5\ngini = 0.101\nsamples = 56\nvalue = [53, 3]"] ;
741 -> 742 ;
743 [label="gini = 0.0\nsamples = 30\nvalue = [30, 0]"] ;
742 -> 743 ;
744 [label="X[2] <= 159.5\ngini = 0.204\nsamples = 26\nvalue = [23, 3]"] ;
742 -> 744 ;
745 [label="gini = 0.0\nsamples = 1\nvalue = [0, 1]"] ;
744 -> 745 ;
746 [label="gini = 0.147\nsamples = 25\nvalue = [23, 2]"] ;
744 -> 746 ;
747 [label="X[5] <= -37.764\ngini = 0.5\nsamples = 4\nvalue = [2, 2]"] ;
741 -> 747 ;
748 [label="gini = 0.0\nsamples = 1\nvalue = [1, 0]"] ;
747 -> 748 ;
749 [label="X[2] <= 93.0\ngini = 0.444\nsamples = 3\nvalue = [1, 2]"] ;
747 -> 749 ;
750 [label="gini = 0.0\nsamples = 1\nvalue = [0, 1]"] ;
749 -> 750 ;
751 [label="gini = 0.5\nsamples = 2\nvalue = [1, 1]"] ;
749 -> 751 ;
752 [label="X[2] <= 320.5\ngini = 0.5\nsamples = 4\nvalue = [2, 2]"] ;
740 -> 752 ;
753 [label="gini = 0.0\nsamples = 1\nvalue = [0, 1]"] ;
752 -> 753 ;
754 [label="X[5] <= -37.764\ngini = 0.444\nsamples = 3\nvalue = [2, 1]"] ;
752 -> 754 ;
755 [label="gini = 0.0\nsamples = 1\nvalue = [0, 1]"] ;
754 -> 755 ;
756 [label="gini = 0.0\nsamples = 2\nvalue = [2, 0]"] ;
754 -> 756 ;
757 [label="X[5] <= -38.012\ngini = 0.271\nsamples = 229\nvalue = [37, 192]"] ;
681 -> 757 ;
758 [label="X[4] <= 1971.5\ngini = 0.245\nsamples = 7\nvalue = [6, 1]"] ;
757 -> 758 ;
759 [label="X[3] <= 235.0\ngini = 0.5\nsamples = 2\nvalue = [1, 1]"] ;
758 -> 759 ;
760 [label="gini = 0.0\nsamples = 1\nvalue = [1, 0]"] ;
759 -> 760 ;
761 [label="gini = 0.0\nsamples = 1\nvalue = [0, 1]"] ;
759 -> 761 ;
762 [label="gini = 0.0\nsamples = 5\nvalue = [5, 0]"] ;
758 -> 762 ;
763 [label="X[6] <= 144.906\ngini = 0.24\nsamples = 222\nvalue = [31, 191]"] ;
757 -> 763 ;
764 [label="X[1] <= 2.5\ngini = 0.451\nsamples = 35\nvalue = [12, 23]"] ;
763 -> 764 ;
765 [label="X[5] <= -37.858\ngini = 0.499\nsamples = 23\nvalue = [11, 12]"] ;
764 -> 765 ;
766 [label="gini = 0.0\nsamples = 6\nvalue = [0, 6]"] ;
765 -> 766 ;
767 [label="X[2] <= 179.0\ngini = 0.457\nsamples = 17\nvalue = [11, 6]"] ;
765 -> 767 ;
768 [label="gini = 0.0\nsamples = 3\nvalue = [0, 3]"] ;
767 -> 768 ;
769 [label="X[3] <= 202.0\ngini = 0.337\nsamples = 14\nvalue = [11, 3]"] ;
767 -> 769 ;
770 [label="gini = 0.0\nsamples = 8\nvalue = [8, 0]"] ;
769 -> 770 ;
771 [label="gini = 0.5\nsamples = 6\nvalue = [3, 3]"] ;
769 -> 771 ;
772 [label="X[2] <= 195.0\ngini = 0.153\nsamples = 12\nvalue = [1, 11]"] ;
764 -> 772 ;
773 [label="X[6] <= 144.891\ngini = 0.5\nsamples = 2\nvalue = [1, 1]"] ;
772 -> 773 ;
774 [label="gini = 0.0\nsamples = 1\nvalue = [0, 1]"] ;
773 -> 774 ;
775 [label="gini = 0.0\nsamples = 1\nvalue = [1, 0]"] ;
773 -> 775 ;
776 [label="gini = 0.0\nsamples = 10\nvalue = [0, 10]"] ;
772 -> 776 ;
777 [label="X[6] <= 145.1\ngini = 0.183\nsamples = 187\nvalue = [19, 168]"] ;
763 -> 777 ;
778 [label="X[5] <= -37.757\ngini = 0.109\nsamples = 156\nvalue = [9, 147]"] ;
777 -> 778 ;
779 [label="X[5] <= -37.886\ngini = 0.088\nsamples = 152\nvalue = [7, 145]"] ;
778 -> 779 ;
780 [label="X[5] <= -37.904\ngini = 0.206\nsamples = 60\nvalue = [7, 53]"] ;
779 -> 780 ;
781 [label="gini = 0.115\nsamples = 49\nvalue = [3, 46]"] ;
780 -> 781 ;
782 [label="gini = 0.463\nsamples = 11\nvalue = [4, 7]"] ;
780 -> 782 ;
783 [label="gini = 0.0\nsamples = 92\nvalue = [0, 92]"] ;
779 -> 783 ;
784 [label="X[5] <= -37.754\ngini = 0.5\nsamples = 4\nvalue = [2, 2]"] ;
778 -> 784 ;
785 [label="gini = 0.0\nsamples = 2\nvalue = [2, 0]"] ;
784 -> 785 ;
786 [label="gini = 0.0\nsamples = 2\nvalue = [0, 2]"] ;
784 -> 786 ;
787 [label="X[5] <= -37.917\ngini = 0.437\nsamples = 31\nvalue = [10, 21]"] ;
777 -> 787 ;
788 [label="gini = 0.0\nsamples = 4\nvalue = [4, 0]"] ;
787 -> 788 ;
789 [label="X[6] <= 145.154\ngini = 0.346\nsamples = 27\nvalue = [6, 21]"] ;
787 -> 789 ;
790 [label="X[2] <= 364.0\ngini = 0.236\nsamples = 22\nvalue = [3, 19]"] ;
789 -> 790 ;
791 [label="gini = 0.172\nsamples = 21\nvalue = [2, 19]"] ;
790 -> 791 ;
792 [label="gini = 0.0\nsamples = 1\nvalue = [1, 0]"] ;
790 -> 792 ;
793 [label="X[4] <= 1990.0\ngini = 0.48\nsamples = 5\nvalue = [3, 2]"] ;
789 -> 793 ;
794 [label="gini = 0.0\nsamples = 2\nvalue = [0, 2]"] ;
793 -> 794 ;
795 [label="gini = 0.0\nsamples = 3\nvalue = [3, 0]"] ;
793 -> 795 ;
796 [label="X[5] <= -37.961\ngini = 0.209\nsamples = 2450\nvalue = [291, 2159]"] ;
556 -> 796 ;
797 [label="X[6] <= 145.11\ngini = 0.482\nsamples = 143\nvalue = [85, 58]"] ;
796 -> 797 ;
798 [label="X[2] <= 543.0\ngini = 0.386\nsamples = 65\nvalue = [17, 48]"] ;
797 -> 798 ;
799 [label="X[3] <= 138.0\ngini = 0.32\nsamples = 15\nvalue = [12, 3]"] ;
798 -> 799 ;
800 [label="gini = 0.0\nsamples = 10\nvalue = [10, 0]"] ;
799 -> 800 ;
801 [label="X[5] <= -37.981\ngini = 0.48\nsamples = 5\nvalue = [2, 3]"] ;
799 -> 801 ;
802 [label="X[4] <= 1993.5\ngini = 0.444\nsamples = 3\nvalue = [2, 1]"] ;
801 -> 802 ;
803 [label="gini = 0.0\nsamples = 2\nvalue = [2, 0]"] ;
802 -> 803 ;
804 [label="gini = 0.0\nsamples = 1\nvalue = [0, 1]"] ;
802 -> 804 ;
805 [label="gini = 0.0\nsamples = 2\nvalue = [0, 2]"] ;
801 -> 805 ;
806 [label="X[5] <= -38.162\ngini = 0.18\nsamples = 50\nvalue = [5, 45]"] ;
798 -> 806 ;
807 [label="gini = 0.0\nsamples = 1\nvalue = [1, 0]"] ;
806 -> 807 ;
808 [label="X[5] <= -37.963\ngini = 0.15\nsamples = 49\nvalue = [4, 45]"] ;
806 -> 808 ;
809 [label="X[6] <= 145.082\ngini = 0.117\nsamples = 48\nvalue = [3, 45]"] ;
808 -> 809 ;
810 [label="gini = 0.0\nsamples = 31\nvalue = [0, 31]"] ;
809 -> 810 ;
811 [label="X[5] <= -37.984\ngini = 0.291\nsamples = 17\nvalue = [3, 14]"] ;
809 -> 811 ;
812 [label="X[6] <= 145.099\ngini = 0.124\nsamples = 15\nvalue = [1, 14]"] ;
811 -> 812 ;
813 [label="gini = 0.0\nsamples = 11\nvalue = [0, 11]"] ;
812 -> 813 ;
814 [label="gini = 0.375\nsamples = 4\nvalue = [1, 3]"] ;
812 -> 814 ;
815 [label="gini = 0.0\nsamples = 2\nvalue = [2, 0]"] ;
811 -> 815 ;
816 [label="gini = 0.0\nsamples = 1\nvalue = [1, 0]"] ;
808 -> 816 ;
817 [label="X[3] <= 223.5\ngini = 0.224\nsamples = 78\nvalue = [68, 10]"] ;
797 -> 817 ;
818 [label="X[1] <= 4.5\ngini = 0.108\nsamples = 70\nvalue = [66, 4]"] ;
817 -> 818 ;
819 [label="X[2] <= 1933.5\ngini = 0.083\nsamples = 69\nvalue = [66, 3]"] ;
818 -> 819 ;
820 [label="X[6] <= 145.115\ngini = 0.058\nsamples = 67\nvalue = [65, 2]"] ;
819 -> 820 ;
821 [label="X[3] <= 59.0\ngini = 0.444\nsamples = 3\nvalue = [2, 1]"] ;
820 -> 821 ;
822 [label="gini = 0.0\nsamples = 1\nvalue = [0, 1]"] ;
821 -> 822 ;
823 [label="gini = 0.0\nsamples = 2\nvalue = [2, 0]"] ;
821 -> 823 ;
824 [label="X[6] <= 145.127\ngini = 0.031\nsamples = 64\nvalue = [63, 1]"] ;
820 -> 824 ;
825 [label="X[6] <= 145.127\ngini = 0.111\nsamples = 17\nvalue = [16, 1]"] ;
824 -> 825 ;
826 [label="gini = 0.0\nsamples = 16\nvalue = [16, 0]"] ;
825 -> 826 ;
827 [label="gini = 0.0\nsamples = 1\nvalue = [0, 1]"] ;
825 -> 827 ;
828 [label="gini = 0.0\nsamples = 47\nvalue = [47, 0]"] ;
824 -> 828 ;
829 [label="X[5] <= -38.179\ngini = 0.5\nsamples = 2\nvalue = [1, 1]"] ;
819 -> 829 ;
830 [label="gini = 0.0\nsamples = 1\nvalue = [1, 0]"] ;
829 -> 830 ;
831 [label="gini = 0.0\nsamples = 1\nvalue = [0, 1]"] ;
829 -> 831 ;
832 [label="gini = 0.0\nsamples = 1\nvalue = [0, 1]"] ;
818 -> 832 ;
833 [label="X[1] <= 4.5\ngini = 0.375\nsamples = 8\nvalue = [2, 6]"] ;
817 -> 833 ;
834 [label="X[6] <= 145.122\ngini = 0.245\nsamples = 7\nvalue = [1, 6]"] ;
833 -> 834 ;
835 [label="X[1] <= 3.0\ngini = 0.5\nsamples = 2\nvalue = [1, 1]"] ;
834 -> 835 ;
836 [label="gini = 0.0\nsamples = 1\nvalue = [1, 0]"] ;
835 -> 836 ;
837 [label="gini = 0.0\nsamples = 1\nvalue = [0, 1]"] ;
835 -> 837 ;
838 [label="gini = 0.0\nsamples = 5\nvalue = [0, 5]"] ;
834 -> 838 ;
839 [label="gini = 0.0\nsamples = 1\nvalue = [1, 0]"] ;
833 -> 839 ;
840 [label="X[6] <= 144.889\ngini = 0.163\nsamples = 2307\nvalue = [206, 2101]"] ;
796 -> 840 ;
841 [label="X[1] <= 1.5\ngini = 0.436\nsamples = 115\nvalue = [37, 78]"] ;
840 -> 841 ;
842 [label="X[5] <= -37.795\ngini = 0.498\nsamples = 58\nvalue = [31, 27]"] ;
841 -> 842 ;
843 [label="X[2] <= 644.5\ngini = 0.415\nsamples = 34\nvalue = [10, 24]"] ;
842 -> 843 ;
844 [label="X[2] <= 438.5\ngini = 0.48\nsamples = 25\nvalue = [10, 15]"] ;
843 -> 844 ;
845 [label="gini = 0.0\nsamples = 5\nvalue = [0, 5]"] ;
844 -> 845 ;
846 [label="X[0] <= 3.5\ngini = 0.5\nsamples = 20\nvalue = [10, 10]"] ;
844 -> 846 ;
847 [label="X[6] <= 144.878\ngini = 0.484\nsamples = 17\nvalue = [7, 10]"] ;
846 -> 847 ;
848 [label="gini = 0.469\nsamples = 8\nvalue = [5, 3]"] ;
847 -> 848 ;
849 [label="gini = 0.346\nsamples = 9\nvalue = [2, 7]"] ;
847 -> 849 ;
850 [label="gini = 0.0\nsamples = 3\nvalue = [3, 0]"] ;
846 -> 850 ;
851 [label="gini = 0.0\nsamples = 9\nvalue = [0, 9]"] ;
843 -> 851 ;
852 [label="X[2] <= 744.5\ngini = 0.219\nsamples = 24\nvalue = [21, 3]"] ;
842 -> 852 ;
853 [label="X[2] <= 586.5\ngini = 0.159\nsamples = 23\nvalue = [21, 2]"] ;
852 -> 853 ;
854 [label="gini = 0.0\nsamples = 14\nvalue = [14, 0]"] ;
853 -> 854 ;
855 [label="X[2] <= 595.5\ngini = 0.346\nsamples = 9\nvalue = [7, 2]"] ;
853 -> 855 ;
856 [label="gini = 0.0\nsamples = 2\nvalue = [0, 2]"] ;
855 -> 856 ;
857 [label="gini = 0.0\nsamples = 7\nvalue = [7, 0]"] ;
855 -> 857 ;
858 [label="gini = 0.0\nsamples = 1\nvalue = [0, 1]"] ;
852 -> 858 ;
859 [label="X[4] <= 2016.5\ngini = 0.188\nsamples = 57\nvalue = [6, 51]"] ;
841 -> 859 ;
860 [label="X[6] <= 144.889\ngini = 0.163\nsamples = 56\nvalue = [5, 51]"] ;
859 -> 860 ;
861 [label="X[0] <= 6.5\ngini = 0.135\nsamples = 55\nvalue = [4, 51]"] ;
860 -> 861 ;
862 [label="X[6] <= 144.876\ngini = 0.105\nsamples = 54\nvalue = [3, 51]"] ;
861 -> 862 ;
863 [label="X[6] <= 144.876\ngini = 0.32\nsamples = 10\nvalue = [2, 8]"] ;
862 -> 863 ;
864 [label="gini = 0.0\nsamples = 8\nvalue = [0, 8]"] ;
863 -> 864 ;
865 [label="gini = 0.0\nsamples = 2\nvalue = [2, 0]"] ;
863 -> 865 ;
866 [label="X[0] <= 3.5\ngini = 0.044\nsamples = 44\nvalue = [1, 43]"] ;
862 -> 866 ;
867 [label="gini = 0.165\nsamples = 11\nvalue = [1, 10]"] ;
866 -> 867 ;
868 [label="gini = 0.0\nsamples = 33\nvalue = [0, 33]"] ;
866 -> 868 ;
869 [label="gini = 0.0\nsamples = 1\nvalue = [1, 0]"] ;
861 -> 869 ;
870 [label="gini = 0.0\nsamples = 1\nvalue = [1, 0]"] ;
860 -> 870 ;
871 [label="gini = 0.0\nsamples = 1\nvalue = [1, 0]"] ;
859 -> 871 ;
872 [label="X[2] <= 2652.0\ngini = 0.142\nsamples = 2192\nvalue = [169, 2023]"] ;
840 -> 872 ;
873 [label="X[5] <= -37.924\ngini = 0.134\nsamples = 2170\nvalue = [157, 2013]"] ;
872 -> 873 ;
874 [label="X[6] <= 145.079\ngini = 0.322\nsamples = 248\nvalue = [50, 198]"] ;
873 -> 874 ;
875 [label="X[6] <= 145.045\ngini = 0.154\nsamples = 202\nvalue = [17, 185]"] ;
874 -> 875 ;
876 [label="X[4] <= 2016.0\ngini = 0.016\nsamples = 125\nvalue = [1, 124]"] ;
875 -> 876 ;
877 [label="gini = 0.0\nsamples = 124\nvalue = [0, 124]"] ;
876 -> 877 ;
878 [label="gini = 0.0\nsamples = 1\nvalue = [1, 0]"] ;
876 -> 878 ;
879 [label="X[6] <= 145.046\ngini = 0.329\nsamples = 77\nvalue = [16, 61]"] ;
875 -> 879 ;
880 [label="gini = 0.0\nsamples = 3\nvalue = [3, 0]"] ;
879 -> 880 ;
881 [label="X[2] <= 540.0\ngini = 0.29\nsamples = 74\nvalue = [13, 61]"] ;
879 -> 881 ;
882 [label="gini = 0.494\nsamples = 9\nvalue = [5, 4]"] ;
881 -> 882 ;
883 [label="gini = 0.216\nsamples = 65\nvalue = [8, 57]"] ;
881 -> 883 ;
884 [label="X[2] <= 561.0\ngini = 0.405\nsamples = 46\nvalue = [33, 13]"] ;
874 -> 884 ;
885 [label="gini = 0.0\nsamples = 13\nvalue = [13, 0]"] ;
884 -> 885 ;
886 [label="X[5] <= -37.926\ngini = 0.478\nsamples = 33\nvalue = [20, 13]"] ;
884 -> 886 ;
887 [label="X[3] <= 113.5\ngini = 0.436\nsamples = 28\nvalue = [19, 9]"] ;
886 -> 887 ;
888 [label="gini = 0.32\nsamples = 20\nvalue = [16, 4]"] ;
887 -> 888 ;
889 [label="gini = 0.469\nsamples = 8\nvalue = [3, 5]"] ;
887 -> 889 ;
890 [label="X[5] <= -37.925\ngini = 0.32\nsamples = 5\nvalue = [1, 4]"] ;
886 -> 890 ;
891 [label="gini = 0.0\nsamples = 4\nvalue = [0, 4]"] ;
890 -> 891 ;
892 [label="gini = 0.0\nsamples = 1\nvalue = [1, 0]"] ;
890 -> 892 ;
893 [label="X[5] <= -37.758\ngini = 0.105\nsamples = 1922\nvalue = [107, 1815]"] ;
873 -> 893 ;
894 [label="X[2] <= 421.5\ngini = 0.081\nsamples = 1789\nvalue = [76, 1713]"] ;
893 -> 894 ;
895 [label="X[6] <= 145.09\ngini = 0.275\nsamples = 97\nvalue = [16, 81]"] ;
894 -> 895 ;
896 [label="X[5] <= -37.906\ngini = 0.184\nsamples = 78\nvalue = [8, 70]"] ;
895 -> 896 ;
897 [label="gini = 0.5\nsamples = 6\nvalue = [3, 3]"] ;
896 -> 897 ;
898 [label="gini = 0.129\nsamples = 72\nvalue = [5, 67]"] ;
896 -> 898 ;
899 [label="X[6] <= 145.107\ngini = 0.488\nsamples = 19\nvalue = [8, 11]"] ;
895 -> 899 ;
900 [label="gini = 0.346\nsamples = 9\nvalue = [7, 2]"] ;
899 -> 900 ;
901 [label="gini = 0.18\nsamples = 10\nvalue = [1, 9]"] ;
899 -> 901 ;
902 [label="X[0] <= 3.5\ngini = 0.068\nsamples = 1692\nvalue = [60, 1632]"] ;
894 -> 902 ;
903 [label="X[2] <= 1088.0\ngini = 0.111\nsamples = 731\nvalue = [43, 688]"] ;
902 -> 903 ;
904 [label="gini = 0.095\nsamples = 698\nvalue = [35, 663]"] ;
903 -> 904 ;
905 [label="gini = 0.367\nsamples = 33\nvalue = [8, 25]"] ;
903 -> 905 ;
906 [label="X[5] <= -37.766\ngini = 0.035\nsamples = 961\nvalue = [17, 944]"] ;
902 -> 906 ;
907 [label="gini = 0.023\nsamples = 875\nvalue = [10, 865]"] ;
906 -> 907 ;
908 [label="gini = 0.15\nsamples = 86\nvalue = [7, 79]"] ;
906 -> 908 ;
909 [label="X[6] <= 145.01\ngini = 0.358\nsamples = 133\nvalue = [31, 102]"] ;
893 -> 909 ;
910 [label="X[2] <= 582.5\ngini = 0.242\nsamples = 85\nvalue = [12, 73]"] ;
909 -> 910 ;
911 [label="X[6] <= 144.948\ngini = 0.343\nsamples = 50\nvalue = [11, 39]"] ;
910 -> 911 ;
912 [label="gini = 0.498\nsamples = 17\nvalue = [8, 9]"] ;
911 -> 912 ;
913 [label="gini = 0.165\nsamples = 33\nvalue = [3, 30]"] ;
911 -> 913 ;
914 [label="X[4] <= 1940.0\ngini = 0.056\nsamples = 35\nvalue = [1, 34]"] ;
910 -> 914 ;
915 [label="gini = 0.0\nsamples = 27\nvalue = [0, 27]"] ;
914 -> 915 ;
916 [label="gini = 0.219\nsamples = 8\nvalue = [1, 7]"] ;
914 -> 916 ;
917 [label="X[6] <= 145.05\ngini = 0.478\nsamples = 48\nvalue = [19, 29]"] ;
909 -> 917 ;
918 [label="X[2] <= 705.0\ngini = 0.42\nsamples = 20\nvalue = [14, 6]"] ;
917 -> 918 ;
919 [label="gini = 0.346\nsamples = 18\nvalue = [14, 4]"] ;
918 -> 919 ;
920 [label="gini = 0.0\nsamples = 2\nvalue = [0, 2]"] ;
918 -> 920 ;
921 [label="X[5] <= -37.753\ngini = 0.293\nsamples = 28\nvalue = [5, 23]"] ;
917 -> 921 ;
922 [label="gini = 0.486\nsamples = 12\nvalue = [5, 7]"] ;
921 -> 922 ;
923 [label="gini = 0.0\nsamples = 16\nvalue = [0, 16]"] ;
921 -> 923 ;
924 [label="X[2] <= 4859.0\ngini = 0.496\nsamples = 22\nvalue = [12, 10]"] ;
872 -> 924 ;
925 [label="X[5] <= -37.843\ngini = 0.219\nsamples = 8\nvalue = [7, 1]"] ;
924 -> 925 ;
926 [label="gini = 0.0\nsamples = 1\nvalue = [0, 1]"] ;
925 -> 926 ;
927 [label="gini = 0.0\nsamples = 7\nvalue = [7, 0]"] ;
925 -> 927 ;
928 [label="X[4] <= 970.0\ngini = 0.459\nsamples = 14\nvalue = [5, 9]"] ;
924 -> 928 ;
929 [label="X[5] <= -37.801\ngini = 0.494\nsamples = 9\nvalue = [5, 4]"] ;
928 -> 929 ;
930 [label="gini = 0.0\nsamples = 4\nvalue = [4, 0]"] ;
929 -> 930 ;
931 [label="X[6] <= 144.98\ngini = 0.32\nsamples = 5\nvalue = [1, 4]"] ;
929 -> 931 ;
932 [label="gini = 0.0\nsamples = 1\nvalue = [1, 0]"] ;
931 -> 932 ;
933 [label="gini = 0.0\nsamples = 4\nvalue = [0, 4]"] ;
931 -> 933 ;
934 [label="gini = 0.0\nsamples = 5\nvalue = [0, 5]"] ;
928 -> 934 ;
935 [label="X[0] <= 3.5\ngini = 0.426\nsamples = 442\nvalue = [306, 136]"] ;
555 -> 935 ;
936 [label="X[2] <= 1512.0\ngini = 0.195\nsamples = 228\nvalue = [203, 25]"] ;
935 -> 936 ;
937 [label="X[6] <= 145.254\ngini = 0.177\nsamples = 224\nvalue = [202, 22]"] ;
936 -> 937 ;
938 [label="X[5] <= -37.905\ngini = 0.269\nsamples = 131\nvalue = [110, 21]"] ;
937 -> 938 ;
939 [label="gini = 0.0\nsamples = 55\nvalue = [55, 0]"] ;
938 -> 939 ;
940 [label="X[2] <= 482.0\ngini = 0.4\nsamples = 76\nvalue = [55, 21]"] ;
938 -> 940 ;
941 [label="X[5] <= -37.887\ngini = 0.227\nsamples = 46\nvalue = [40, 6]"] ;
940 -> 941 ;
942 [label="gini = 0.0\nsamples = 1\nvalue = [0, 1]"] ;
941 -> 942 ;
943 [label="X[6] <= 145.253\ngini = 0.198\nsamples = 45\nvalue = [40, 5]"] ;
941 -> 943 ;
944 [label="X[3] <= 156.0\ngini = 0.165\nsamples = 44\nvalue = [40, 4]"] ;
943 -> 944 ;
945 [label="X[5] <= -37.795\ngini = 0.095\nsamples = 40\nvalue = [38, 2]"] ;
944 -> 945 ;
946 [label="gini = 0.051\nsamples = 38\nvalue = [37, 1]"] ;
945 -> 946 ;
947 [label="gini = 0.5\nsamples = 2\nvalue = [1, 1]"] ;
945 -> 947 ;
948 [label="X[4] <= 1985.0\ngini = 0.5\nsamples = 4\nvalue = [2, 2]"] ;
944 -> 948 ;
949 [label="gini = 0.0\nsamples = 2\nvalue = [0, 2]"] ;
948 -> 949 ;
950 [label="gini = 0.0\nsamples = 2\nvalue = [2, 0]"] ;
948 -> 950 ;
951 [label="gini = 0.0\nsamples = 1\nvalue = [0, 1]"] ;
943 -> 951 ;
952 [label="X[2] <= 844.0\ngini = 0.5\nsamples = 30\nvalue = [15, 15]"] ;
940 -> 952 ;
953 [label="X[5] <= -37.805\ngini = 0.494\nsamples = 27\nvalue = [15, 12]"] ;
952 -> 953 ;
954 [label="X[6] <= 145.241\ngini = 0.496\nsamples = 22\nvalue = [10, 12]"] ;
953 -> 954 ;
955 [label="X[4] <= 1974.0\ngini = 0.465\nsamples = 19\nvalue = [7, 12]"] ;
954 -> 955 ;
956 [label="gini = 0.415\nsamples = 17\nvalue = [5, 12]"] ;
955 -> 956 ;
957 [label="gini = 0.0\nsamples = 2\nvalue = [2, 0]"] ;
955 -> 957 ;
958 [label="gini = 0.0\nsamples = 3\nvalue = [3, 0]"] ;
954 -> 958 ;
959 [label="gini = 0.0\nsamples = 5\nvalue = [5, 0]"] ;
953 -> 959 ;
960 [label="gini = 0.0\nsamples = 3\nvalue = [0, 3]"] ;
952 -> 960 ;
961 [label="X[2] <= 93.5\ngini = 0.021\nsamples = 93\nvalue = [92, 1]"] ;
937 -> 961 ;
962 [label="X[4] <= 1970.5\ngini = 0.1\nsamples = 19\nvalue = [18, 1]"] ;
961 -> 962 ;
963 [label="gini = 0.0\nsamples = 13\nvalue = [13, 0]"] ;
962 -> 963 ;
964 [label="X[4] <= 1973.0\ngini = 0.278\nsamples = 6\nvalue = [5, 1]"] ;
962 -> 964 ;
965 [label="gini = 0.0\nsamples = 1\nvalue = [0, 1]"] ;
964 -> 965 ;
966 [label="gini = 0.0\nsamples = 5\nvalue = [5, 0]"] ;
964 -> 966 ;
967 [label="gini = 0.0\nsamples = 74\nvalue = [74, 0]"] ;
961 -> 967 ;
968 [label="X[1] <= 1.5\ngini = 0.375\nsamples = 4\nvalue = [1, 3]"] ;
936 -> 968 ;
969 [label="gini = 0.0\nsamples = 1\nvalue = [1, 0]"] ;
968 -> 969 ;
970 [label="gini = 0.0\nsamples = 3\nvalue = [0, 3]"] ;
968 -> 970 ;
971 [label="X[5] <= -37.94\ngini = 0.499\nsamples = 214\nvalue = [103, 111]"] ;
935 -> 971 ;
972 [label="X[2] <= 833.0\ngini = 0.117\nsamples = 48\nvalue = [45, 3]"] ;
971 -> 972 ;
973 [label="X[3] <= 395.5\ngini = 0.048\nsamples = 41\nvalue = [40, 1]"] ;
972 -> 973 ;
974 [label="gini = 0.0\nsamples = 39\nvalue = [39, 0]"] ;
973 -> 974 ;
975 [label="X[6] <= 145.406\ngini = 0.5\nsamples = 2\nvalue = [1, 1]"] ;
973 -> 975 ;
976 [label="gini = 0.0\nsamples = 1\nvalue = [0, 1]"] ;
975 -> 976 ;
977 [label="gini = 0.0\nsamples = 1\nvalue = [1, 0]"] ;
975 -> 977 ;
978 [label="X[5] <= -37.995\ngini = 0.408\nsamples = 7\nvalue = [5, 2]"] ;
972 -> 978 ;
979 [label="gini = 0.0\nsamples = 5\nvalue = [5, 0]"] ;
978 -> 979 ;
980 [label="gini = 0.0\nsamples = 2\nvalue = [0, 2]"] ;
978 -> 980 ;
981 [label="X[6] <= 145.255\ngini = 0.455\nsamples = 166\nvalue = [58, 108]"] ;
971 -> 981 ;
982 [label="X[2] <= 733.5\ngini = 0.337\nsamples = 121\nvalue = [26, 95]"] ;
981 -> 982 ;
983 [label="X[5] <= -37.857\ngini = 0.454\nsamples = 69\nvalue = [24, 45]"] ;
982 -> 983 ;
984 [label="X[5] <= -37.918\ngini = 0.219\nsamples = 32\nvalue = [4, 28]"] ;
983 -> 984 ;
985 [label="X[0] <= 4.5\ngini = 0.48\nsamples = 5\nvalue = [2, 3]"] ;
984 -> 985 ;
986 [label="gini = 0.0\nsamples = 3\nvalue = [0, 3]"] ;
985 -> 986 ;
987 [label="gini = 0.0\nsamples = 2\nvalue = [2, 0]"] ;
985 -> 987 ;
988 [label="X[6] <= 145.216\ngini = 0.137\nsamples = 27\nvalue = [2, 25]"] ;
984 -> 988 ;
989 [label="gini = 0.0\nsamples = 15\nvalue = [0, 15]"] ;
988 -> 989 ;
990 [label="X[5] <= -37.886\ngini = 0.278\nsamples = 12\nvalue = [2, 10]"] ;
988 -> 990 ;
991 [label="gini = 0.0\nsamples = 1\nvalue = [1, 0]"] ;
990 -> 991 ;
992 [label="X[6] <= 145.241\ngini = 0.165\nsamples = 11\nvalue = [1, 10]"] ;
990 -> 992 ;
993 [label="gini = 0.0\nsamples = 7\nvalue = [0, 7]"] ;
992 -> 993 ;
994 [label="gini = 0.375\nsamples = 4\nvalue = [1, 3]"] ;
992 -> 994 ;
995 [label="X[6] <= 145.209\ngini = 0.497\nsamples = 37\nvalue = [20, 17]"] ;
983 -> 995 ;
996 [label="X[2] <= 591.5\ngini = 0.455\nsamples = 20\nvalue = [7, 13]"] ;
995 -> 996 ;
997 [label="X[3] <= 213.5\ngini = 0.469\nsamples = 8\nvalue = [5, 3]"] ;
996 -> 997 ;
998 [label="gini = 0.0\nsamples = 5\nvalue = [5, 0]"] ;
997 -> 998 ;
999 [label="gini = 0.0\nsamples = 3\nvalue = [0, 3]"] ;
997 -> 999 ;
1000 [label="X[5] <= -37.807\ngini = 0.278\nsamples = 12\nvalue = [2, 10]"] ;
996 -> 1000 ;
1001 [label="X[5] <= -37.849\ngini = 0.165\nsamples = 11\nvalue = [1, 10]"] ;
1000 -> 1001 ;
1002 [label="gini = 0.5\nsamples = 2\nvalue = [1, 1]"] ;
1001 -> 1002 ;
1003 [label="gini = 0.0\nsamples = 9\nvalue = [0, 9]"] ;
1001 -> 1003 ;
1004 [label="gini = 0.0\nsamples = 1\nvalue = [1, 0]"] ;
1000 -> 1004 ;
1005 [label="X[5] <= -37.826\ngini = 0.36\nsamples = 17\nvalue = [13, 4]"] ;
995 -> 1005 ;
1006 [label="gini = 0.0\nsamples = 8\nvalue = [8, 0]"] ;
1005 -> 1006 ;
1007 [label="X[6] <= 145.242\ngini = 0.494\nsamples = 9\nvalue = [5, 4]"] ;
1005 -> 1007 ;
1008 [label="X[5] <= -37.804\ngini = 0.444\nsamples = 6\nvalue = [2, 4]"] ;
1007 -> 1008 ;
1009 [label="gini = 0.0\nsamples = 3\nvalue = [0, 3]"] ;
1008 -> 1009 ;
1010 [label="gini = 0.444\nsamples = 3\nvalue = [2, 1]"] ;
1008 -> 1010 ;
1011 [label="gini = 0.0\nsamples = 3\nvalue = [3, 0]"] ;
1007 -> 1011 ;
1012 [label="X[6] <= 145.234\ngini = 0.074\nsamples = 52\nvalue = [2, 50]"] ;
982 -> 1012 ;
1013 [label="gini = 0.0\nsamples = 39\nvalue = [0, 39]"] ;
1012 -> 1013 ;
1014 [label="X[6] <= 145.236\ngini = 0.26\nsamples = 13\nvalue = [2, 11]"] ;
1012 -> 1014 ;
1015 [label="gini = 0.0\nsamples = 1\nvalue = [1, 0]"] ;
1014 -> 1015 ;
1016 [label="X[6] <= 145.24\ngini = 0.153\nsamples = 12\nvalue = [1, 11]"] ;
1014 -> 1016 ;
1017 [label="X[5] <= -37.855\ngini = 0.444\nsamples = 3\nvalue = [1, 2]"] ;
1016 -> 1017 ;
1018 [label="gini = 0.0\nsamples = 2\nvalue = [0, 2]"] ;
1017 -> 1018 ;
1019 [label="gini = 0.0\nsamples = 1\nvalue = [1, 0]"] ;
1017 -> 1019 ;
1020 [label="gini = 0.0\nsamples = 9\nvalue = [0, 9]"] ;
1016 -> 1020 ;
1021 [label="X[3] <= 226.5\ngini = 0.411\nsamples = 45\nvalue = [32, 13]"] ;
981 -> 1021 ;
1022 [label="X[2] <= 3012.0\ngini = 0.245\nsamples = 35\nvalue = [30, 5]"] ;
1021 -> 1022 ;
1023 [label="X[4] <= 1962.5\ngini = 0.165\nsamples = 33\nvalue = [30, 3]"] ;
1022 -> 1023 ;
1024 [label="X[4] <= 980.0\ngini = 0.375\nsamples = 12\nvalue = [9, 3]"] ;
1023 -> 1024 ;
1025 [label="X[5] <= -37.803\ngini = 0.298\nsamples = 11\nvalue = [9, 2]"] ;
1024 -> 1025 ;
1026 [label="X[5] <= -37.844\ngini = 0.444\nsamples = 6\nvalue = [4, 2]"] ;
1025 -> 1026 ;
1027 [label="gini = 0.0\nsamples = 4\nvalue = [4, 0]"] ;
1026 -> 1027 ;
1028 [label="gini = 0.0\nsamples = 2\nvalue = [0, 2]"] ;
1026 -> 1028 ;
1029 [label="gini = 0.0\nsamples = 5\nvalue = [5, 0]"] ;
1025 -> 1029 ;
1030 [label="gini = 0.0\nsamples = 1\nvalue = [0, 1]"] ;
1024 -> 1030 ;
1031 [label="gini = 0.0\nsamples = 21\nvalue = [21, 0]"] ;
1023 -> 1031 ;
1032 [label="gini = 0.0\nsamples = 2\nvalue = [0, 2]"] ;
1022 -> 1032 ;
1033 [label="X[3] <= 824.0\ngini = 0.32\nsamples = 10\nvalue = [2, 8]"] ;
1021 -> 1033 ;
1034 [label="X[6] <= 145.289\ngini = 0.198\nsamples = 9\nvalue = [1, 8]"] ;
1033 -> 1034 ;
1035 [label="gini = 0.0\nsamples = 8\nvalue = [0, 8]"] ;
1034 -> 1035 ;
1036 [label="gini = 0.0\nsamples = 1\nvalue = [1, 0]"] ;
1034 -> 1036 ;
1037 [label="gini = 0.0\nsamples = 1\nvalue = [1, 0]"] ;
1033 -> 1037 ;
1038 [label="X[5] <= -37.456\ngini = 0.426\nsamples = 3716\nvalue = [2574, 1142]"] ;
456 -> 1038 ;
1039 [label="X[5] <= -37.725\ngini = 0.277\nsamples = 1975\nvalue = [1647, 328]"] ;
1038 -> 1039 ;
1040 [label="X[2] <= 612.5\ngini = 0.443\nsamples = 769\nvalue = [514, 255]"] ;
1039 -> 1040 ;
1041 [label="X[3] <= 203.5\ngini = 0.358\nsamples = 527\nvalue = [404, 123]"] ;
1040 -> 1041 ;
1042 [label="X[6] <= 144.868\ngini = 0.304\nsamples = 486\nvalue = [395, 91]"] ;
1041 -> 1042 ;
1043 [label="gini = 0.0\nsamples = 69\nvalue = [69, 0]"] ;
1042 -> 1043 ;
1044 [label="X[4] <= 1949.0\ngini = 0.341\nsamples = 417\nvalue = [326, 91]"] ;
1042 -> 1044 ;
1045 [label="X[6] <= 145.009\ngini = 0.399\nsamples = 262\nvalue = [190, 72]"] ;
1044 -> 1045 ;
1046 [label="X[2] <= 510.0\ngini = 0.453\nsamples = 173\nvalue = [113, 60]"] ;
1045 -> 1046 ;
1047 [label="X[5] <= -37.725\ngini = 0.399\nsamples = 131\nvalue = [95, 36]"] ;
1046 -> 1047 ;
1048 [label="X[5] <= -37.734\ngini = 0.383\nsamples = 128\nvalue = [95, 33]"] ;
1047 -> 1048 ;
1049 [label="X[6] <= 144.991\ngini = 0.449\nsamples = 88\nvalue = [58, 30]"] ;
1048 -> 1049 ;
1050 [label="gini = 0.481\nsamples = 72\nvalue = [43, 29]"] ;
1049 -> 1050 ;
1051 [label="gini = 0.117\nsamples = 16\nvalue = [15, 1]"] ;
1049 -> 1051 ;
1052 [label="X[6] <= 145.009\ngini = 0.139\nsamples = 40\nvalue = [37, 3]"] ;
1048 -> 1052 ;
1053 [label="gini = 0.097\nsamples = 39\nvalue = [37, 2]"] ;
1052 -> 1053 ;
1054 [label="gini = 0.0\nsamples = 1\nvalue = [0, 1]"] ;
1052 -> 1054 ;
1055 [label="gini = 0.0\nsamples = 3\nvalue = [0, 3]"] ;
1047 -> 1055 ;
1056 [label="X[4] <= 1922.5\ngini = 0.49\nsamples = 42\nvalue = [18, 24]"] ;
1046 -> 1056 ;
1057 [label="X[6] <= 144.991\ngini = 0.5\nsamples = 35\nvalue = [18, 17]"] ;
1056 -> 1057 ;
1058 [label="X[3] <= 63.5\ngini = 0.477\nsamples = 28\nvalue = [17, 11]"] ;
1057 -> 1058 ;
1059 [label="gini = 0.496\nsamples = 22\nvalue = [12, 10]"] ;
1058 -> 1059 ;
1060 [label="gini = 0.278\nsamples = 6\nvalue = [5, 1]"] ;
1058 -> 1060 ;
1061 [label="X[6] <= 145.001\ngini = 0.245\nsamples = 7\nvalue = [1, 6]"] ;
1057 -> 1061 ;
1062 [label="gini = 0.0\nsamples = 5\nvalue = [0, 5]"] ;
1061 -> 1062 ;
1063 [label="gini = 0.5\nsamples = 2\nvalue = [1, 1]"] ;
1061 -> 1063 ;
1064 [label="gini = 0.0\nsamples = 7\nvalue = [0, 7]"] ;
1056 -> 1064 ;
1065 [label="X[1] <= 1.5\ngini = 0.233\nsamples = 89\nvalue = [77, 12]"] ;
1045 -> 1065 ;
1066 [label="X[1] <= 0.5\ngini = 0.105\nsamples = 54\nvalue = [51, 3]"] ;
1065 -> 1066 ;
1067 [label="gini = 0.0\nsamples = 1\nvalue = [0, 1]"] ;
1066 -> 1067 ;
1068 [label="X[2] <= 87.0\ngini = 0.073\nsamples = 53\nvalue = [51, 2]"] ;
1066 -> 1068 ;
1069 [label="gini = 0.0\nsamples = 1\nvalue = [0, 1]"] ;
1068 -> 1069 ;
1070 [label="X[2] <= 586.5\ngini = 0.038\nsamples = 52\nvalue = [51, 1]"] ;
1068 -> 1070 ;
1071 [label="gini = 0.0\nsamples = 44\nvalue = [44, 0]"] ;
1070 -> 1071 ;
1072 [label="gini = 0.219\nsamples = 8\nvalue = [7, 1]"] ;
1070 -> 1072 ;
1073 [label="X[3] <= 125.5\ngini = 0.382\nsamples = 35\nvalue = [26, 9]"] ;
1065 -> 1073 ;
1074 [label="X[5] <= -37.733\ngini = 0.334\nsamples = 33\nvalue = [26, 7]"] ;
1073 -> 1074 ;
1075 [label="X[6] <= 145.028\ngini = 0.403\nsamples = 25\nvalue = [18, 7]"] ;
1074 -> 1075 ;
1076 [label="gini = 0.48\nsamples = 5\nvalue = [2, 3]"] ;
1075 -> 1076 ;
1077 [label="gini = 0.32\nsamples = 20\nvalue = [16, 4]"] ;
1075 -> 1077 ;
1078 [label="gini = 0.0\nsamples = 8\nvalue = [8, 0]"] ;
1074 -> 1078 ;
1079 [label="gini = 0.0\nsamples = 2\nvalue = [0, 2]"] ;
1073 -> 1079 ;
1080 [label="X[0] <= 3.5\ngini = 0.215\nsamples = 155\nvalue = [136, 19]"] ;
1044 -> 1080 ;
1081 [label="X[2] <= 608.5\ngini = 0.133\nsamples = 126\nvalue = [117, 9]"] ;
1080 -> 1081 ;
1082 [label="X[5] <= -37.746\ngini = 0.12\nsamples = 125\nvalue = [117, 8]"] ;
1081 -> 1082 ;
1083 [label="X[5] <= -37.747\ngini = 0.408\nsamples = 14\nvalue = [10, 4]"] ;
1082 -> 1083 ;
1084 [label="X[3] <= 155.0\ngini = 0.198\nsamples = 9\nvalue = [8, 1]"] ;
1083 -> 1084 ;
1085 [label="gini = 0.0\nsamples = 8\nvalue = [8, 0]"] ;
1084 -> 1085 ;
1086 [label="gini = 0.0\nsamples = 1\nvalue = [0, 1]"] ;
1084 -> 1086 ;
1087 [label="X[4] <= 1972.5\ngini = 0.48\nsamples = 5\nvalue = [2, 3]"] ;
1083 -> 1087 ;
1088 [label="gini = 0.0\nsamples = 2\nvalue = [0, 2]"] ;
1087 -> 1088 ;
1089 [label="gini = 0.444\nsamples = 3\nvalue = [2, 1]"] ;
1087 -> 1089 ;
1090 [label="X[4] <= 2014.5\ngini = 0.069\nsamples = 111\nvalue = [107, 4]"] ;
1082 -> 1090 ;
1091 [label="X[6] <= 145.104\ngini = 0.054\nsamples = 109\nvalue = [106, 3]"] ;
1090 -> 1091 ;
1092 [label="gini = 0.037\nsamples = 106\nvalue = [104, 2]"] ;
1091 -> 1092 ;
1093 [label="gini = 0.444\nsamples = 3\nvalue = [2, 1]"] ;
1091 -> 1093 ;
1094 [label="X[3] <= 127.0\ngini = 0.5\nsamples = 2\nvalue = [1, 1]"] ;
1090 -> 1094 ;
1095 [label="gini = 0.0\nsamples = 1\nvalue = [1, 0]"] ;
1094 -> 1095 ;
1096 [label="gini = 0.0\nsamples = 1\nvalue = [0, 1]"] ;
1094 -> 1096 ;
1097 [label="gini = 0.0\nsamples = 1\nvalue = [0, 1]"] ;
1081 -> 1097 ;
1098 [label="X[6] <= 144.932\ngini = 0.452\nsamples = 29\nvalue = [19, 10]"] ;
1080 -> 1098 ;
1099 [label="X[6] <= 144.883\ngini = 0.463\nsamples = 11\nvalue = [4, 7]"] ;
1098 -> 1099 ;
1100 [label="X[5] <= -37.731\ngini = 0.32\nsamples = 5\nvalue = [4, 1]"] ;
1099 -> 1100 ;
1101 [label="gini = 0.0\nsamples = 4\nvalue = [4, 0]"] ;
1100 -> 1101 ;
1102 [label="gini = 0.0\nsamples = 1\nvalue = [0, 1]"] ;
1100 -> 1102 ;
1103 [label="gini = 0.0\nsamples = 6\nvalue = [0, 6]"] ;
1099 -> 1103 ;
1104 [label="X[2] <= 555.5\ngini = 0.278\nsamples = 18\nvalue = [15, 3]"] ;
1098 -> 1104 ;
1105 [label="gini = 0.0\nsamples = 11\nvalue = [11, 0]"] ;
1104 -> 1105 ;
1106 [label="X[6] <= 145.007\ngini = 0.49\nsamples = 7\nvalue = [4, 3]"] ;
1104 -> 1106 ;
1107 [label="gini = 0.0\nsamples = 2\nvalue = [0, 2]"] ;
1106 -> 1107 ;
1108 [label="X[3] <= 186.5\ngini = 0.32\nsamples = 5\nvalue = [4, 1]"] ;
1106 -> 1108 ;
1109 [label="gini = 0.0\nsamples = 4\nvalue = [4, 0]"] ;
1108 -> 1109 ;
1110 [label="gini = 0.0\nsamples = 1\nvalue = [0, 1]"] ;
1108 -> 1110 ;
1111 [label="X[6] <= 144.871\ngini = 0.343\nsamples = 41\nvalue = [9, 32]"] ;
1041 -> 1111 ;
1112 [label="gini = 0.0\nsamples = 3\nvalue = [3, 0]"] ;
1111 -> 1112 ;
1113 [label="X[3] <= 500.5\ngini = 0.266\nsamples = 38\nvalue = [6, 32]"] ;
1111 -> 1113 ;
1114 [label="X[2] <= 310.0\ngini = 0.198\nsamples = 36\nvalue = [4, 32]"] ;
1113 -> 1114 ;
1115 [label="X[2] <= 170.5\ngini = 0.375\nsamples = 12\nvalue = [3, 9]"] ;
1114 -> 1115 ;
1116 [label="gini = 0.0\nsamples = 9\nvalue = [0, 9]"] ;
1115 -> 1116 ;
1117 [label="gini = 0.0\nsamples = 3\nvalue = [3, 0]"] ;
1115 -> 1117 ;
1118 [label="X[4] <= 962.5\ngini = 0.08\nsamples = 24\nvalue = [1, 23]"] ;
1114 -> 1118 ;
1119 [label="X[3] <= 396.5\ngini = 0.5\nsamples = 2\nvalue = [1, 1]"] ;
1118 -> 1119 ;
1120 [label="gini = 0.0\nsamples = 1\nvalue = [1, 0]"] ;
1119 -> 1120 ;
1121 [label="gini = 0.0\nsamples = 1\nvalue = [0, 1]"] ;
1119 -> 1121 ;
1122 [label="gini = 0.0\nsamples = 22\nvalue = [0, 22]"] ;
1118 -> 1122 ;
1123 [label="gini = 0.0\nsamples = 2\nvalue = [2, 0]"] ;
1113 -> 1123 ;
1124 [label="X[6] <= 144.882\ngini = 0.496\nsamples = 242\nvalue = [110, 132]"] ;
1040 -> 1124 ;
1125 [label="X[3] <= 236.5\ngini = 0.219\nsamples = 48\nvalue = [42, 6]"] ;
1124 -> 1125 ;
1126 [label="X[2] <= 654.5\ngini = 0.089\nsamples = 43\nvalue = [41, 2]"] ;
1125 -> 1126 ;
1127 [label="X[6] <= 144.878\ngini = 0.26\nsamples = 13\nvalue = [11, 2]"] ;
1126 -> 1127 ;
1128 [label="X[2] <= 635.5\ngini = 0.153\nsamples = 12\nvalue = [11, 1]"] ;
1127 -> 1128 ;
1129 [label="gini = 0.0\nsamples = 8\nvalue = [8, 0]"] ;
1128 -> 1129 ;
1130 [label="X[6] <= 144.866\ngini = 0.375\nsamples = 4\nvalue = [3, 1]"] ;
1128 -> 1130 ;
1131 [label="gini = 0.0\nsamples = 3\nvalue = [3, 0]"] ;
1130 -> 1131 ;
1132 [label="gini = 0.0\nsamples = 1\nvalue = [0, 1]"] ;
1130 -> 1132 ;
1133 [label="gini = 0.0\nsamples = 1\nvalue = [0, 1]"] ;
1127 -> 1133 ;
1134 [label="gini = 0.0\nsamples = 30\nvalue = [30, 0]"] ;
1126 -> 1134 ;
1135 [label="X[2] <= 651.5\ngini = 0.32\nsamples = 5\nvalue = [1, 4]"] ;
1125 -> 1135 ;
1136 [label="X[6] <= 144.851\ngini = 0.5\nsamples = 2\nvalue = [1, 1]"] ;
1135 -> 1136 ;
1137 [label="gini = 0.0\nsamples = 1\nvalue = [1, 0]"] ;
1136 -> 1137 ;
1138 [label="gini = 0.0\nsamples = 1\nvalue = [0, 1]"] ;
1136 -> 1138 ;
1139 [label="gini = 0.0\nsamples = 3\nvalue = [0, 3]"] ;
1135 -> 1139 ;
1140 [label="X[6] <= 144.927\ngini = 0.455\nsamples = 194\nvalue = [68, 126]"] ;
1124 -> 1140 ;
1141 [label="X[2] <= 1119.5\ngini = 0.203\nsamples = 61\nvalue = [7, 54]"] ;
1140 -> 1141 ;
1142 [label="X[6] <= 144.886\ngini = 0.18\nsamples = 60\nvalue = [6, 54]"] ;
1141 -> 1142 ;
1143 [label="X[6] <= 144.885\ngini = 0.444\nsamples = 9\nvalue = [3, 6]"] ;
1142 -> 1143 ;
1144 [label="gini = 0.0\nsamples = 4\nvalue = [0, 4]"] ;
1143 -> 1144 ;
1145 [label="X[2] <= 685.0\ngini = 0.48\nsamples = 5\nvalue = [3, 2]"] ;
1143 -> 1145 ;
1146 [label="X[2] <= 638.0\ngini = 0.444\nsamples = 3\nvalue = [1, 2]"] ;
1145 -> 1146 ;
1147 [label="gini = 0.0\nsamples = 1\nvalue = [1, 0]"] ;
1146 -> 1147 ;
1148 [label="gini = 0.0\nsamples = 2\nvalue = [0, 2]"] ;
1146 -> 1148 ;
1149 [label="gini = 0.0\nsamples = 2\nvalue = [2, 0]"] ;
1145 -> 1149 ;
1150 [label="X[5] <= -37.731\ngini = 0.111\nsamples = 51\nvalue = [3, 48]"] ;
1142 -> 1150 ;
1151 [label="X[2] <= 861.5\ngini = 0.043\nsamples = 45\nvalue = [1, 44]"] ;
1150 -> 1151 ;
1152 [label="gini = 0.0\nsamples = 41\nvalue = [0, 41]"] ;
1151 -> 1152 ;
1153 [label="X[2] <= 881.0\ngini = 0.375\nsamples = 4\nvalue = [1, 3]"] ;
1151 -> 1153 ;
1154 [label="gini = 0.0\nsamples = 1\nvalue = [1, 0]"] ;
1153 -> 1154 ;
1155 [label="gini = 0.0\nsamples = 3\nvalue = [0, 3]"] ;
1153 -> 1155 ;
1156 [label="X[5] <= -37.729\ngini = 0.444\nsamples = 6\nvalue = [2, 4]"] ;
1150 -> 1156 ;
1157 [label="gini = 0.0\nsamples = 2\nvalue = [2, 0]"] ;
1156 -> 1157 ;
1158 [label="gini = 0.0\nsamples = 4\nvalue = [0, 4]"] ;
1156 -> 1158 ;
1159 [label="gini = 0.0\nsamples = 1\nvalue = [1, 0]"] ;
1141 -> 1159 ;
1160 [label="X[4] <= 1943.5\ngini = 0.497\nsamples = 133\nvalue = [61, 72]"] ;
1140 -> 1160 ;
1161 [label="X[0] <= 3.5\ngini = 0.407\nsamples = 74\nvalue = [21, 53]"] ;
1160 -> 1161 ;
1162 [label="X[6] <= 145.028\ngini = 0.491\nsamples = 37\nvalue = [16, 21]"] ;
1161 -> 1162 ;
1163 [label="X[2] <= 683.5\ngini = 0.34\nsamples = 23\nvalue = [5, 18]"] ;
1162 -> 1163 ;
1164 [label="X[6] <= 145.003\ngini = 0.496\nsamples = 11\nvalue = [5, 6]"] ;
1163 -> 1164 ;
1165 [label="X[3] <= 57.5\ngini = 0.469\nsamples = 8\nvalue = [5, 3]"] ;
1164 -> 1165 ;
1166 [label="gini = 0.278\nsamples = 6\nvalue = [5, 1]"] ;
1165 -> 1166 ;
1167 [label="gini = 0.0\nsamples = 2\nvalue = [0, 2]"] ;
1165 -> 1167 ;
1168 [label="gini = 0.0\nsamples = 3\nvalue = [0, 3]"] ;
1164 -> 1168 ;
1169 [label="gini = 0.0\nsamples = 12\nvalue = [0, 12]"] ;
1163 -> 1169 ;
1170 [label="X[5] <= -37.745\ngini = 0.337\nsamples = 14\nvalue = [11, 3]"] ;
1162 -> 1170 ;
1171 [label="gini = 0.0\nsamples = 1\nvalue = [0, 1]"] ;
1170 -> 1171 ;
1172 [label="X[6] <= 145.051\ngini = 0.26\nsamples = 13\nvalue = [11, 2]"] ;
1170 -> 1172 ;
1173 [label="gini = 0.0\nsamples = 7\nvalue = [7, 0]"] ;
1172 -> 1173 ;
1174 [label="X[5] <= -37.731\ngini = 0.444\nsamples = 6\nvalue = [4, 2]"] ;
1172 -> 1174 ;
1175 [label="gini = 0.444\nsamples = 3\nvalue = [1, 2]"] ;
1174 -> 1175 ;
1176 [label="gini = 0.0\nsamples = 3\nvalue = [3, 0]"] ;
1174 -> 1176 ;
1177 [label="X[1] <= 6.0\ngini = 0.234\nsamples = 37\nvalue = [5, 32]"] ;
1161 -> 1177 ;
1178 [label="X[5] <= -37.731\ngini = 0.198\nsamples = 36\nvalue = [4, 32]"] ;
1177 -> 1178 ;
1179 [label="X[6] <= 145.016\ngini = 0.069\nsamples = 28\nvalue = [1, 27]"] ;
1178 -> 1179 ;
1180 [label="X[6] <= 144.999\ngini = 0.32\nsamples = 5\nvalue = [1, 4]"] ;
1179 -> 1180 ;
1181 [label="gini = 0.0\nsamples = 4\nvalue = [0, 4]"] ;
1180 -> 1181 ;
1182 [label="gini = 0.0\nsamples = 1\nvalue = [1, 0]"] ;
1180 -> 1182 ;
1183 [label="gini = 0.0\nsamples = 23\nvalue = [0, 23]"] ;
1179 -> 1183 ;
1184 [label="X[6] <= 145.022\ngini = 0.469\nsamples = 8\nvalue = [3, 5]"] ;
1178 -> 1184 ;
1185 [label="gini = 0.0\nsamples = 4\nvalue = [0, 4]"] ;
1184 -> 1185 ;
1186 [label="X[5] <= -37.727\ngini = 0.375\nsamples = 4\nvalue = [3, 1]"] ;
1184 -> 1186 ;
1187 [label="gini = 0.0\nsamples = 3\nvalue = [3, 0]"] ;
1186 -> 1187 ;
1188 [label="gini = 0.0\nsamples = 1\nvalue = [0, 1]"] ;
1186 -> 1188 ;
1189 [label="gini = 0.0\nsamples = 1\nvalue = [1, 0]"] ;
1177 -> 1189 ;
1190 [label="X[3] <= 197.0\ngini = 0.437\nsamples = 59\nvalue = [40, 19]"] ;
1160 -> 1190 ;
1191 [label="X[3] <= 9.0\ngini = 0.325\nsamples = 49\nvalue = [39, 10]"] ;
1190 -> 1191 ;
1192 [label="X[0] <= 3.5\ngini = 0.494\nsamples = 9\nvalue = [4, 5]"] ;
1191 -> 1192 ;
1193 [label="X[2] <= 806.5\ngini = 0.444\nsamples = 6\nvalue = [4, 2]"] ;
1192 -> 1193 ;
1194 [label="X[4] <= 1965.0\ngini = 0.32\nsamples = 5\nvalue = [4, 1]"] ;
1193 -> 1194 ;
1195 [label="gini = 0.0\nsamples = 4\nvalue = [4, 0]"] ;
1194 -> 1195 ;
1196 [label="gini = 0.0\nsamples = 1\nvalue = [0, 1]"] ;
1194 -> 1196 ;
1197 [label="gini = 0.0\nsamples = 1\nvalue = [0, 1]"] ;
1193 -> 1197 ;
1198 [label="gini = 0.0\nsamples = 3\nvalue = [0, 3]"] ;
1192 -> 1198 ;
1199 [label="X[6] <= 145.021\ngini = 0.219\nsamples = 40\nvalue = [35, 5]"] ;
1191 -> 1199 ;
1200 [label="X[2] <= 639.0\ngini = 0.444\nsamples = 15\nvalue = [10, 5]"] ;
1199 -> 1200 ;
1201 [label="gini = 0.0\nsamples = 2\nvalue = [0, 2]"] ;
1200 -> 1201 ;
1202 [label="X[4] <= 1955.0\ngini = 0.355\nsamples = 13\nvalue = [10, 3]"] ;
1200 -> 1202 ;
1203 [label="gini = 0.18\nsamples = 10\nvalue = [9, 1]"] ;
1202 -> 1203 ;
1204 [label="gini = 0.444\nsamples = 3\nvalue = [1, 2]"] ;
1202 -> 1204 ;
1205 [label="gini = 0.0\nsamples = 25\nvalue = [25, 0]"] ;
1199 -> 1205 ;
1206 [label="X[5] <= -37.747\ngini = 0.18\nsamples = 10\nvalue = [1, 9]"] ;
1190 -> 1206 ;
1207 [label="X[6] <= 145.064\ngini = 0.5\nsamples = 2\nvalue = [1, 1]"] ;
1206 -> 1207 ;
1208 [label="gini = 0.0\nsamples = 1\nvalue = [1, 0]"] ;
1207 -> 1208 ;
1209 [label="gini = 0.0\nsamples = 1\nvalue = [0, 1]"] ;
1207 -> 1209 ;
1210 [label="gini = 0.0\nsamples = 8\nvalue = [0, 8]"] ;
1206 -> 1210 ;
1211 [label="X[3] <= 270.5\ngini = 0.114\nsamples = 1206\nvalue = [1133, 73]"] ;
1039 -> 1211 ;
1212 [label="X[2] <= 696.5\ngini = 0.094\nsamples = 1173\nvalue = [1115, 58]"] ;
1211 -> 1212 ;
1213 [label="X[5] <= -37.711\ngini = 0.05\nsamples = 932\nvalue = [908, 24]"] ;
1212 -> 1213 ;
1214 [label="X[0] <= 3.5\ngini = 0.137\nsamples = 257\nvalue = [238, 19]"] ;
1213 -> 1214 ;
1215 [label="X[4] <= 2016.5\ngini = 0.049\nsamples = 198\nvalue = [193, 5]"] ;
1214 -> 1215 ;
1216 [label="X[5] <= -37.711\ngini = 0.04\nsamples = 197\nvalue = [193, 4]"] ;
1215 -> 1216 ;
1217 [label="X[6] <= 145.125\ngini = 0.03\nsamples = 196\nvalue = [193, 3]"] ;
1216 -> 1217 ;
1218 [label="X[3] <= 173.5\ngini = 0.02\nsamples = 194\nvalue = [192, 2]"] ;
1217 -> 1218 ;
1219 [label="gini = 0.0\nsamples = 184\nvalue = [184, 0]"] ;
1218 -> 1219 ;
1220 [label="X[3] <= 184.5\ngini = 0.32\nsamples = 10\nvalue = [8, 2]"] ;
1218 -> 1220 ;
1221 [label="gini = 0.444\nsamples = 3\nvalue = [1, 2]"] ;
1220 -> 1221 ;
1222 [label="gini = 0.0\nsamples = 7\nvalue = [7, 0]"] ;
1220 -> 1222 ;
1223 [label="X[2] <= 416.5\ngini = 0.5\nsamples = 2\nvalue = [1, 1]"] ;
1217 -> 1223 ;
1224 [label="gini = 0.0\nsamples = 1\nvalue = [1, 0]"] ;
1223 -> 1224 ;
1225 [label="gini = 0.0\nsamples = 1\nvalue = [0, 1]"] ;
1223 -> 1225 ;
1226 [label="gini = 0.0\nsamples = 1\nvalue = [0, 1]"] ;
1216 -> 1226 ;
1227 [label="gini = 0.0\nsamples = 1\nvalue = [0, 1]"] ;
1215 -> 1227 ;
1228 [label="X[3] <= 185.0\ngini = 0.362\nsamples = 59\nvalue = [45, 14]"] ;
1214 -> 1228 ;
1229 [label="X[4] <= 1940.0\ngini = 0.295\nsamples = 50\nvalue = [41, 9]"] ;
1228 -> 1229 ;
1230 [label="X[6] <= 144.92\ngini = 0.436\nsamples = 28\nvalue = [19, 9]"] ;
1229 -> 1230 ;
1231 [label="gini = 0.0\nsamples = 9\nvalue = [9, 0]"] ;
1230 -> 1231 ;
1232 [label="X[2] <= 654.5\ngini = 0.499\nsamples = 19\nvalue = [10, 9]"] ;
1230 -> 1232 ;
1233 [label="X[2] <= 465.0\ngini = 0.48\nsamples = 15\nvalue = [6, 9]"] ;
1232 -> 1233 ;
1234 [label="gini = 0.444\nsamples = 6\nvalue = [4, 2]"] ;
1233 -> 1234 ;
1235 [label="gini = 0.346\nsamples = 9\nvalue = [2, 7]"] ;
1233 -> 1235 ;
1236 [label="gini = 0.0\nsamples = 4\nvalue = [4, 0]"] ;
1232 -> 1236 ;
1237 [label="gini = 0.0\nsamples = 22\nvalue = [22, 0]"] ;
1229 -> 1237 ;
1238 [label="X[2] <= 542.0\ngini = 0.494\nsamples = 9\nvalue = [4, 5]"] ;
1228 -> 1238 ;
1239 [label="gini = 0.0\nsamples = 3\nvalue = [3, 0]"] ;
1238 -> 1239 ;
1240 [label="X[3] <= 259.0\ngini = 0.278\nsamples = 6\nvalue = [1, 5]"] ;
1238 -> 1240 ;
1241 [label="gini = 0.0\nsamples = 5\nvalue = [0, 5]"] ;
1240 -> 1241 ;
1242 [label="gini = 0.0\nsamples = 1\nvalue = [1, 0]"] ;
1240 -> 1242 ;
1243 [label="X[0] <= 4.5\ngini = 0.015\nsamples = 675\nvalue = [670, 5]"] ;
1213 -> 1243 ;
1244 [label="X[6] <= 144.888\ngini = 0.003\nsamples = 645\nvalue = [644, 1]"] ;
1243 -> 1244 ;
1245 [label="X[6] <= 144.887\ngini = 0.017\nsamples = 115\nvalue = [114, 1]"] ;
1244 -> 1245 ;
1246 [label="gini = 0.0\nsamples = 114\nvalue = [114, 0]"] ;
1245 -> 1246 ;
1247 [label="gini = 0.0\nsamples = 1\nvalue = [0, 1]"] ;
1245 -> 1247 ;
1248 [label="gini = 0.0\nsamples = 530\nvalue = [530, 0]"] ;
1244 -> 1248 ;
1249 [label="X[6] <= 145.107\ngini = 0.231\nsamples = 30\nvalue = [26, 4]"] ;
1243 -> 1249 ;
